-1.358249494230427512e+00 -2.968595547944724800e+00 5.119274358271690417e-01 -4.129181985118316689e+00 -2.849634485188304645e+00 -1.165735302675142648e+01 -1.609022814581736682e+00 -3.402709491250280216e+00 2.065915838648278435e-01 1.783885953805380009e-01 1.188049824063479809e+00 1.924523733256278391e+01 -7.732078516386449163e-01 -1.040132428419687116e+00 -7.270287361617131516e-01 -4.102041249263560729e+00 5.380843067402297564e+00 -4.351493043459110588e+00 -1.973229670055681595e+01 -1.570683842348196579e+00 -2.557990211112736834e+00 -9.545683497304398024e-01 -6.647440627419360926e-01 -1.655825291489736451e+00 4.565773156811882671e+00 -1.444788141648498225e+00
-2.437126269357777542e+00 -5.163286832497270495e+00 -2.169344532152733152e+00 3.900302311320005710e+00 -2.102024382664998914e+00 1.983018561927531209e+01 -1.164755284925359291e+01 -6.287619009532280145e+00 -8.114945084247844775e+00 -8.331810852051041438e-01 4.231754131772285987e+00 1.133713316857812625e+00 -3.230607660189723784e+00 -1.253395467868447355e+00 -1.942390026203245057e+01 -2.929793696877929232e+00 5.480322321973570832e-01 5.581628517011790080e+00 8.059680274732147209e-01 -3.230419111407227373e+00 -2.394507311856491238e+00 2.062529190938022694e+01 -5.664334648360491720e-02 -4.345721961440882630e+00 -3.656599671904840143e+00 -3.274779869415766154e+00
-3.242313984194602039e+00 -4.378195926689373074e+00 4.592673398847629818e-01 -7.786065213903063054e+00 1.273041703886127074e+01 1.707369043070059655e+00 -1.129756664223511287e+00 -4.220339432031213533e+00 -2.506920585607179675e+00 1.256584094459951118e+00 -6.727604625501082403e-01 7.730286310296826890e+00 -1.920579637329283607e+00 2.101706682013119831e+00 1.273114539561343150e+01 -3.010456114015010343e+00 1.612012393078020267e+01 -6.626403217011272773e+00 -4.957357643385526202e+00 -2.433382736226731513e+00 -3.615932829239467239e+00 -6.228378496158006872e-01 -5.318888268820425314e-01 2.089167377020506144e+00 -5.999464137080948944e+00 -2.007663941837616317e+00
4.179712102021459486e-01 1.070002360103202044e+00 3.742992658205086975e+00 -5.965035749940905685e-01 -2.095276161649862523e+00 5.640825432734681399e+00 9.136515478880766761e-01 2.218963390380552347e+00 8.752502575245932892e-01 2.157542959614104028e+00 4.614409967876149210e+00 7.811238283067562627e+00 -1.076186474847553143e+00 -2.002699110229865465e+00 -1.339952078674965108e+01 8.315165308100682662e-01 -2.982957551620745917e+01 5.239565599559573350e+00 -9.261842495012320597e+00 3.834383411980186174e-01 1.062342580479353593e+00 -2.706652952179081595e+01 -5.219003302194105132e-01 3.938757835155145770e+00 -1.601927195835535045e+01 2.195846286040530893e-01
-8.124105368314561426e-01 -3.347100770665631053e+00 1.021856867914678668e+00 -5.568559804880868214e+00 -3.286981083471986587e+00 -7.157230245184692308e+00 5.807015063268761601e+00 4.754044133397684391e+00 -2.963962922794453725e+00 1.990841664755704121e+00 3.709855700536040857e+00 4.124491106011817010e+00 -8.227419892129428369e-01 6.320521374522525271e+00 6.426735661105642095e+00 -1.981108846597877005e+00 -1.164349142958279693e+01 -2.001573799177676083e+00 -3.322470803120517679e+00 -2.012828436947044164e+00 -3.054217345721459420e+00 4.454966002697450911e+00 3.082008685832189898e-01 -2.576798209717268584e+00 1.193894584781779322e+01 -7.573889518310472635e-01
-1.796371476110449450e+00 -2.475501723849025115e+00 -5.884029209705767371e+00 1.441418509221034538e+00 -2.279933478479617914e+00 8.071514596360042759e+00 -1.052303308036162655e+01 8.937774820430020029e+00 1.576743500652156627e+00 -4.126024307893776388e+00 -8.275546168472285302e+00 -1.620590024245218785e+01 -1.762332737245060343e+00 1.158794318157531533e+00 -2.720577589963256493e+00 -3.484252300298205540e+00 1.489672579521487350e+01 3.832352537359593470e+00 -6.597710484981950785e+00 -2.236086982953726210e+00 -3.545969865229693596e+00 -5.605282347598637749e+00 1.547407785806628744e-01 -4.449455099725898033e-01 1.195892919197411253e+01 -2.002493444114797683e+00
2.763168325827913829e-01 -4.817624312501112005e-01 -1.123941653807014607e+00 -7.552648518372587771e-01 1.708958422093003637e+00 -1.181129860618520766e+01 6.274082850436818681e+00 -3.656422527404911360e+00 -5.011912959515047561e+00 -9.064139069522951786e-01 -1.700082655284896216e+00 -1.937054778949378786e+01 1.605171916315477898e-01 2.368293058860269973e+00 2.566377647131617756e+00 8.170068286508040956e-01 1.320379247349184437e+00 -1.672198412545677915e+00 -1.235491722843630136e+01 3.378981269253855668e-01 -8.166277993290704806e-01 -1.673544710346313380e+01 6.195022220868279250e-02 6.610638152688959046e-01 4.766882813925933604e+00 3.923908835784820082e-01
-7.898539406996253343e-01 5.531916733996049551e-01 -4.187177339238261631e+00 -5.142786932226842467e+00 -5.960441173379932067e+00 -1.437085277370778869e+01 6.908259506836695429e+00 -8.995037370984116265e+00 -4.581027940974886081e-01 -1.614967027716168735e+00 -8.309015978492652055e-01 -8.903277293180472896e+00 -1.720760771290586355e+00 -7.277631280731220453e-01 -1.944571870296880611e+00 -8.475961645380155618e-01 7.926093470538408070e+00 -4.166312662764519281e+00 4.904820463522594487e+00 -1.773114136146705544e+00 -2.322934373781539108e+00 1.601972588605615044e+01 1.333827648048067083e+00 2.584175957104478449e+00 -8.743239110023719007e+00 -2.600285582019966846e+00
-4.875133782419595718e+00 -4.704254451621352473e+00 -6.024816881415565040e-02 -4.147425305434399689e+00 -2.352135136543017868e+00 1.196704366612207338e+01 -4.153207289963249949e+00 -4.031714219216732786e+00 -5.978198935722931928e+00 -6.685926234444269367e-01 -3.992409146889096538e-01 1.135381447058859194e+01 -5.030393392631189009e+00 -1.042851641152757480e+01 3.157111448929029951e+00 -6.490727970675620462e+00 1.159093772545710799e+01 -6.097280947299251963e+00 1.957126972780182683e+01 -6.213309123366788533e+00 -8.513597823842237844e+00 -9.642364732027633778e+00 -1.991934444627105893e+00 -1.259898788270742997e+01 2.152644147019179144e+01 -5.422004023906255021e+00
-2.495249016107552453e+00 -1.183142551085800465e+00 3.490119026836810412e-01 -1.577487565902424560e+00 -9.371109948577831528e-01 -9.309251677037819306e+00 -3.122184905715696068e+00 9.695071784508824564e+00 2.111183065980787532e+00 -1.492504351092168169e-01 -1.047389891730905198e+01 5.893380129638097209e+00 -2.631536158730423125e+00 3.324276980591435837e+00 5.056266675306915204e+00 -3.273312508408929844e+00 -4.760239787984280824e+00 -3.008429949351204780e+00 9.330688238487333308e+00 -3.218422222477371086e+00 -1.320230517778724355e+00 1.492647469493118528e+01 -1.199948440555330009e+00 -1.096230607081332797e+00 5.397734737308407249e-02 -1.844517559163677989e+00
