1.893477438310914307e-01 -3.738514881926815470e-01 -4.422325728226087493e-01 -3.517003178139293529e-01 -3.133932209733262808e-01 -1.429171193546131535e-01 -1.229315784361672270e-01 1.178154590443298427e-01 3.586103272909728079e-01 4.165074445917061885e-01 1.899216162283138831e-01 3.208875512825295484e-01 1.358633298192106209e-01 6.313690234509403143e-02 1.420795363870929751e-01 1.763665784005661874e-01 1.618564774090508473e-01 1.761929028744370629e-01 2.891227163813028245e-01 1.630843791109789775e-01 1.665005045619340207e-01 2.941919961208143142e-01 3.172448075451682614e-01 3.182327100186470026e-01 3.444586907345361104e-01 3.799069084637286542e-01 4.271039676754037062e-01 2.721354674465754075e-01 2.259941797455238821e-01 2.726919552874056962e-01 3.202772351484136082e-01 2.355685309207021516e-01 2.119210495702251451e-01 -4.624135948486010617e-01 -3.691889835774113671e-01 -2.202833521920270765e-01 -7.382885859392135375e-02 -8.644451756744879478e-03 6.238174580394185292e-02 2.011324101643843787e-01 3.950589141308608609e-01 2.846586092698270010e-01 2.142573518691920920e-01 2.788777521644028590e-01 1.687315144117012000e-01 1.872813773389884751e-01 1.729144138883932924e-01 8.156884968987813955e-02 1.485732915050798630e-01 9.967030961425910052e-02 6.306940515638453926e-02 3.123207467742849519e-01 3.006751046761686474e-01 3.096596605906477562e-01 4.458280898055565489e-01 2.353275144693887933e-01 1.956543455639373208e-01 3.011753744741899608e-01 4.421277337662079532e-01 2.162269003547935831e-01 1.375321941207359178e-01 2.993334638755165145e-01 2.920580732519835188e-01 1.999930197320967662e-01 1.242495653151829832e-01 -3.248207745586034756e-01 -3.100096719104456500e-01 -2.418738337256812476e-01 5.671493984737003419e-02 1.028459966655854152e-01 1.170526327062437477e-01 3.369650127715514421e-01 1.893926472439948494e-01 2.668344856809696797e-01 2.531926995551346815e-01 1.988800180634658077e-01 7.117674339026469621e-02 3.926862791017297905e-02 6.986139568165548874e-02 -6.690449426935202171e-02 6.642308925114090434e-02 3.421822735275049931e-02 8.141580185599214814e-02 5.480239983814862159e-02 1.083539325246690166e-01 4.349887043128890241e-02 2.242682948014182998e-01 5.956063607194575504e-02 8.422506069935861706e-02 7.733292933129151669e-02 2.092353057714042008e-01 2.002614799844746329e-01 1.612278805388898950e-01 1.977854360493002672e-01 1.746219660264554108e-01 1.588104106387335235e-01 2.516632788763739081e-01 -3.067641348533056700e-01 -3.151014298278652093e-01 -1.820664000372907154e-01 2.808748930072063610e-02 -4.754397164878321203e-02 -9.306621672697598657e-02 1.052335794041035222e-01 1.529346101060598540e-01 2.027470452378988264e-01 1.800437533522535882e-01 1.982123720816903745e-01 1.160518994771062157e-01 -5.248834170611074712e-02 -3.456185632282589293e-02 -1.951047755226645308e-01 4.655872059722700185e-02 4.098626980891775795e-02 8.540391115715037507e-02 1.815840821351778767e-01 -3.454526337223982890e-02 -1.607912429531135612e-01 -1.517619918419687852e-01 -9.343012660630090060e-02 -7.158008032519741493e-02 6.842264116502862203e-02 4.493382056172753880e-02 1.115744617307442704e-01 1.671497966082527986e-01 1.396708510448815277e-01 1.009760801295852550e-01 1.305601106423155966e-01 3.032548484202511885e-01 -3.623823952724764541e-01 -3.388463612708434991e-01 -1.102480508105141144e-01 4.054335322645265943e-02 -1.855169519012746793e-01 -1.773295576972346368e-02 3.380704541281971676e-02 5.351264993757420124e-02 2.527280031435348573e-02 2.715079148463673750e-02 -5.246819316648538428e-02 5.792159441142051557e-02 1.792480772145886581e-01 2.966215615994669541e-01 8.945035002631418486e-02 1.921581362522768455e-01 1.547045216587561167e-01 1.253722501966988978e-01 1.925004573876314962e-01 -4.396637622678568544e-03 -2.888630678908561955e-01 -2.446189153196803301e-01 -2.348553494863922508e-01 -7.556839695532717449e-02 -3.541853223839210030e-02 2.251864486731269266e-01 1.274708920668164436e-01 2.114834754810042405e-01 1.194128987136084952e-01 1.187417534212086567e-01 1.464660644908180043e-01 1.720072845650734705e-01 -4.116372112919836068e-01 -2.962993908207374738e-01 -6.459159530438300656e-02 1.921198323123221585e-01 6.497450807462326616e-02 -1.854871780674300502e-02 -2.461742688070215346e-01 -1.592347978881116788e-01 3.344461435348666800e-04 -1.612763236377353082e-01 -8.346489966500156288e-02 1.129762150804515114e-01 1.736161758209641137e-01 3.067607876608197670e-01 1.997561040581951886e-01 8.637068642803938379e-02 2.345730382818138615e-01 2.014083756532287495e-01 1.395514830477955770e-01 1.089279839310113573e-01 -7.043162074812669982e-02 -1.396050146125049907e-01 -1.082224513523263598e-01 -1.725156272621798936e-01 1.492320504111189217e-01 4.416753193226265195e-02 1.276361750497750219e-02 5.978412611639707941e-02 1.151541886299742579e-01 8.727119722851710976e-03 -9.861292210582436879e-02 1.127750515733347975e-01 -3.788405842521279654e-01 -2.602126777888286169e-01 4.865134498068949404e-02 1.351891954905611315e-01 1.683760677196710076e-01 -5.503770809672035857e-02 -2.169532074976286973e-01 1.024339168909661202e-01 9.876372838817254474e-02 1.043168571518628129e-01 8.979385367750608582e-02 2.452683418504399138e-01 3.033798107963331936e-01 3.032547537877080535e-01 1.646682879937577948e-01 1.983316658955084077e-01 3.040645936755567158e-01 2.831680213050784545e-01 2.165188596079266614e-01 2.258077980083210701e-01 5.225324488501399689e-02 -2.596810220317870288e-02 -6.446424323825894476e-02 -1.032225285253553365e-01 -5.170514796440948968e-02 -4.976383736031807226e-02 -1.763828499201484934e-01 -2.784232071710095457e-01 5.064717947524811914e-03 -1.734282098479291920e-02 -6.690720974202375715e-02 1.306999210462734262e-01 -2.392511656302259704e-01 -8.842138053483612758e-02 -1.111301589551575847e-01 6.488969443664606429e-02 9.814344673691795251e-02 -2.231063728843902250e-01 -1.673411333208807972e-01 8.876314293882194006e-02 2.322110876678206426e-01 1.720594580789567840e-01 1.339780876209308857e-01 4.215241839824944159e-01 4.185822894401767247e-01 2.520521878494883516e-01 7.124686082273895549e-02 1.200900582539247974e-01 2.988433344268924263e-01 2.441713432166227604e-01 2.420709194784432805e-01 2.667163136722601191e-01 -7.845825566560454822e-02 -1.083912483948661493e-01 -1.168665340264503777e-01 -1.992812085740772454e-01 -1.455457364151861166e-01 -1.525457953760481766e-01 -1.835608053367101533e-01 -2.111639000883148154e-01 -1.387552595416916557e-01 3.464790056255337425e-02 1.161855169112986294e-02 7.675788703573917238e-02 -2.457522125906857757e-01 -1.007306123244974122e-01 -2.848281472738517506e-02 1.336338932426471837e-01 -2.458305885771747828e-02 -9.462123280251963364e-02 -6.740654824167821579e-02 -1.835217223930552671e-02 2.579796395265430142e-01 1.763632932037506040e-01 4.957010391915765701e-02 1.363392761674985521e-01 3.612854637833723404e-01 2.721669461339831786e-01 6.189897911091575555e-02 1.357267871802524672e-01 1.680623937646218424e-01 4.824416662089642260e-02 1.393896237643566516e-01 1.780672419003538065e-01 -1.227440068094691888e-01 -1.792925808500667462e-01 -2.054279909594463049e-01 -3.295012347930955654e-01 -2.167776513819246742e-01 -7.619740164933200277e-02 -2.057819225006512487e-01 -1.729105964431957021e-01 -3.572199740069998547e-02 5.944231645706088418e-02 1.523588253656873448e-01 1.423492728484335723e-01 -1.183825451405895179e-01 1.633961315511395923e-02 -6.269687455305555934e-02 1.101449535510970329e-01 6.591735573047988878e-03 7.217883627604283758e-02 1.168139097574598800e-01 -5.246786920431836462e-03 8.578486729517866005e-02 6.013226082250083815e-02 -1.413017996862879488e-01 -1.462945649943332982e-01 9.308179397192689608e-02 9.529344903620615148e-02 -7.247408616485125077e-02 1.903226882529950037e-01 1.918521632982415348e-01 3.940708352257338287e-02 9.342456569851601000e-02 2.560805663852280256e-01 -1.076985861647083431e-01 -3.012433232869373700e-01 -1.731698596855370531e-01 -3.269933170680305867e-03 -3.088303391771737849e-02 -1.462683729170578262e-01 -2.445543867546205452e-01 -2.066244544041483944e-01 6.811189662530196809e-02 6.546033489929786731e-02 2.521596530193154218e-01 3.391807798174651944e-01 -2.893178652614429858e-01 -9.784350654147092041e-02 8.738662539224630044e-02 2.125145231762817777e-01 1.758172607310495850e-01 2.828374714360747388e-01 8.129491464520868793e-02 8.386106937455770072e-03 5.493940056042831421e-02 -9.124698294581504165e-02 -1.985121899891950648e-01 -1.714284369358557991e-01 -9.286517262889526503e-02 3.751027163735016351e-02 1.615411630361378650e-02 3.115325451604059048e-01 2.881402550549731489e-01 1.636053028603738635e-02 1.930889761083882661e-01 1.883634922986036214e-02 -2.632244147391057942e-01 -3.845836854233450341e-01 -2.544669975481986812e-01 -5.522604806835249014e-02 -2.375491928893360902e-02 -3.328233290549569706e-02 -1.147335259721799505e-01 -8.870045517363588095e-02 2.233789704053143477e-01 2.000942037447039912e-01 3.201073272154092986e-01 2.564175297852439583e-01 -3.224128377513910682e-01 -2.159246214449225820e-01 3.249666031795298005e-02 1.250118560990577388e-01 2.125940920063956741e-01 2.925756207767072348e-01 1.946849810818926940e-01 8.095578562914530762e-02 8.263080744530318378e-02 4.195819359432181178e-02 -1.975498178576287345e-01 1.992227910616016506e-02 -3.114899772314622464e-02 -7.760283364385719973e-02 9.402571214680036094e-02 2.590393379395486417e-01 3.304836838670863752e-01 1.788589521626765821e-01 2.782695926560402322e-01 -1.927500452288283955e-02 -2.273078297954925775e-01 -1.072068910468873537e-01 -2.928902298607459209e-01 -8.239388246593107312e-02 -1.401737840691489045e-01 -1.836759168893964400e-01 -4.258276400196460421e-02 8.850142919445275203e-02 1.348177619400618421e-01 2.244785272906958951e-01 2.872418885110821773e-01 1.814138641013692266e-01 -4.193063632705523736e-01 -2.009941739329259847e-01 -5.537236229120036379e-02 7.163488638193424296e-03 1.264759402965901502e-01 2.092606193750547461e-01 3.114749967872640357e-01 7.954865249059937804e-02 2.519994766093416327e-01 1.773765565775045627e-01 -1.032953547360889457e-01 1.149663651181858093e-01 -1.280723268284669203e-01 -1.745470086355920269e-01 1.064491110496629533e-01 1.933083478668327915e-01 2.677074523270343009e-01 2.575850305645043248e-01 1.875376828223176973e-01 1.009548524032705813e-01 7.432085007830672996e-02 6.688680411745352716e-02 1.530711982647113556e-02 -3.701290552509291232e-02 7.356711624034839581e-02 1.358531506101202241e-02 -1.275701247592535559e-01 2.833523923959899160e-02 2.244337653666740040e-01 2.554755568814517375e-01 2.354785236555040698e-02 -3.375377509713888002e-02 -2.778344973810606966e-01 -1.554137089000445782e-01 4.035593993598197288e-02 1.022878627331978013e-01 5.572096601023203422e-02 9.844918572273735069e-02 1.393483091267057050e-01 -1.966459866756380473e-02 5.964854368183843125e-02 -1.044441419178278319e-01 -6.225135192508243070e-02 1.141877473041021246e-01 -4.258625546433224274e-02 -1.185444825762822785e-01 -2.992496276506267233e-02 1.264401535756347617e-01 1.497219800986638316e-01 4.627011262238286959e-02 1.009302308604829584e-01 2.186001144568052723e-01 1.720643830492003812e-01 1.833021823152636981e-03 7.394265394086227405e-02 1.361949185202395163e-01 -5.833623088330699979e-03 -1.129258453948387558e-01 3.147885406070718289e-02 2.199774604030983460e-01 1.778584673520998138e-01 4.806619852693595069e-02 6.075582000597373744e-02 1.325528608754119042e-01 -2.527331612451176879e-01 8.003980131184255942e-02 2.346633637789110882e-01 2.297507293575105636e-01 1.368981601430534489e-01 1.387695274629375808e-01 -7.238719557438372254e-02 -2.234919137387966492e-01 -3.064114203077460408e-01 -2.626811398798590824e-01 -1.349780088111809107e-01 -7.882824360024437427e-03 -7.383539620683032823e-02 -1.292687086967324039e-01 -1.955473473707327325e-01 -1.213124903452798553e-01 -2.297609386224112593e-01 -2.739413006288467511e-01 -7.270462539046798622e-02 1.228407781530953258e-01 -7.215493298294374525e-02 -1.052054684278078134e-01 9.314139960375003580e-02 3.630418050116815953e-01 3.635558071717100159e-02 -1.753364585703635625e-01 3.994788604486114447e-02 1.667025348791237316e-01 1.451411786956936789e-01 -6.380709103645977598e-02 -3.332640714259817866e-02 7.988590921062514727e-02 -2.356044443764870877e-01 -4.358765702438221340e-02 -2.442517865141582978e-02 1.503550147769794898e-01 1.904793997786433379e-01 1.232041471946408451e-01 -1.097700007199140793e-01 -2.250082077498071209e-01 -2.709080453768172303e-01 -4.190573209746267791e-01 -1.388432358829585489e-01 -7.427799643114726957e-02 -1.208429830778701558e-01 -1.970743916711781007e-01 -3.477698353661391462e-01 -2.293501221718188543e-01 -2.390600373788493160e-01 -2.451403434928472735e-01 -2.520585759754033761e-01 -7.573833445517250129e-02 -5.891510765838859492e-02 -1.696631583261253851e-01 -6.971924966142994951e-02 2.469256623391263006e-01 1.591774252925843847e-01 -1.306743307363360529e-01 -1.411837997415578416e-01 3.855535250635717254e-02 1.254104219634570028e-01 3.963693168352652035e-02 -2.570197750810887527e-02 1.284845861095974540e-01 -2.398589694525513627e-01 -1.900254581741365467e-01 -3.014240438000445610e-02 -1.131122291780664313e-01 1.031537357691492129e-02 1.988068991443250888e-02 -3.001071601918890719e-02 -2.641090019708479120e-01 -3.501278820587382379e-01 -4.760145115430730045e-01 -2.048170326609737024e-02 1.007795405903366137e-01 -1.147034562151222625e-01 -1.559830161928034142e-01 -2.584868399544818507e-01 -2.169174464792554824e-01 -2.096903922232505324e-01 -2.906960276345129102e-01 -3.139375389020087614e-01 -9.892918461491284621e-02 -1.469394582048682008e-01 -1.467362207219196635e-01 -1.636220997066679395e-01 -3.117752306744215468e-02 -3.622093280857023589e-02 -1.097884462904192143e-01 -1.693391628378950742e-01 7.521647239375546523e-02 1.665157806029918808e-01 -2.128774945455146755e-02 -1.209678850073997169e-01 7.001692212215571143e-02 -4.024636405067862910e-01 -2.438988064564673874e-01 -7.536092285034423632e-02 -2.444120392439233236e-01 -2.954775184426586820e-01 -1.768907417181333763e-01 -1.553241692991020328e-01 -2.764831761589178205e-01 -2.125329200144907560e-01 -1.823859338468367675e-01 1.084560984965963482e-01 5.432881712002510244e-02 -1.173886568198214825e-01 -2.312949616133965214e-01 -7.210289655541463061e-02 2.413979678555104244e-02 -1.144291777466677346e-01 -1.666914452173806072e-01 -8.207661283649304862e-02 1.621590636964301280e-02 -3.461948616673132806e-02 3.254375594632565732e-02 4.005820396416983481e-02 -8.558497883279031493e-02 -1.006419083640783529e-01 -1.139423825528581569e-01 2.445430069846818433e-02 1.285827420994009596e-01 2.028273902226473413e-01 9.304484397367696058e-02 1.685983601615131944e-02 4.268813140392987981e-02 -3.842634487422988965e-01 -1.953875520086746920e-01 -1.537849240928767514e-01 -2.310924156978144128e-01 -1.341228897467286740e-01 -2.795559592360711276e-01 -1.656833095764399799e-01 -2.329787969772213474e-01 -1.471209730996718146e-01 -1.984526344059305836e-01 -5.590227163267333377e-03 1.727041985594800488e-01 -1.259060957869363728e-01 -2.729738969381626523e-01 -3.216852159094533981e-02 1.241802048467348374e-01 1.694342804514048506e-01 1.483744035802628813e-01 2.104705359638853190e-01 2.690132280014126964e-01 2.358547505017550838e-01 2.491501439777747962e-01 1.735740430787528488e-01 -1.408667552618428354e-01 -1.416007071829338271e-01 -4.526215387113387278e-02 8.576767606831409152e-02 2.693031511206928630e-01 2.353086333654363371e-01 2.915330761845855156e-01 2.214029215234711023e-01 1.858938432712990974e-01 -4.026789774641004738e-01 -1.469667443575917720e-01 -6.114038107395924210e-02 8.692502337641235671e-03 9.890913354767152943e-02 -6.904174194229881212e-02 -1.243933480298452243e-01 -8.566715879258723909e-02 -2.044267082142526282e-01 -1.259868409927564215e-01 8.748400176752299529e-02 9.667189946270045298e-02 -2.084583305918411289e-01 -2.195171277994744374e-01 4.302620568450363225e-03 2.091118849423155845e-01 2.349988257264503388e-01 3.731530207030793744e-01 2.492006142373082989e-01 2.081608709166701265e-01 3.379342139592660388e-01 1.482644285348495572e-01 -1.834941991763448105e-02 -1.055249279778784632e-01 -4.249308951038212843e-03 -1.423710428919694460e-01 -3.056981954883023628e-02 1.173398638491190693e-01 2.599724099966079782e-01 1.545966054521126509e-01 1.646478569612868648e-01 2.045948565277937448e-01 -2.981360377500467673e-01 -1.630884452354320613e-01 -1.165549230756329768e-01 3.387133216785141732e-02 7.398321007564469254e-02 -3.152392327537709149e-03 1.900389123029117000e-02 -3.304209641318542334e-03 -6.982969122762731906e-02 -2.417489123082535718e-01 1.391155483389058811e-01 2.974467313664830304e-01 -2.731519809484873190e-02 3.895392333592779394e-02 6.398648291250516595e-02 -8.081491638094326357e-02 -1.646958785065528730e-01 3.537668774111248082e-02 5.354423028723133415e-02 8.831154954570817617e-02 2.650145523610931697e-01 1.908049312359719751e-01 -5.720710355167648448e-02 -2.477679659778568577e-03 2.704741310304241142e-01 7.973474120436889467e-02 -3.138389504355923454e-03 3.301958981435164087e-01 3.090484782262251651e-01 1.067067187006486839e-01 2.713390580273342678e-01 3.413290917539534841e-01 -3.840069065281718208e-01 -2.677252861904467762e-01 -2.459029173851044747e-01 -1.560591825263774879e-01 1.707329918893888410e-01 -3.548303894495338784e-02 -1.140078544964356483e-01 -1.147586940697966212e-01 -2.452343957630615245e-01 -3.542764974499654773e-01 -4.187867887781898668e-02 3.723107020399252232e-01 2.865240522127308620e-01 3.480025806915647557e-01 3.480062629659622098e-02 -1.678960122732617577e-01 -3.106120495832616069e-01 -3.409325239866891621e-01 -1.230912744974159978e-01 6.107825497863104969e-02 2.945682566650814072e-01 2.583153940325759734e-01 8.080761787127740958e-02 1.488133862121582551e-01 4.051899519354230650e-01 2.237191870379383052e-01 1.232010819384926487e-01 1.977714397245342037e-01 1.045307114871984744e-01 1.391064596124488573e-01 2.222037409543985154e-01 1.635358836319596998e-01 -3.500467586533331787e-01 -2.949386337147270609e-01 -3.049619998095384199e-01 -2.131131217942134892e-01 5.312807695415013021e-02 -7.509063206687660585e-02 -9.755695426514764124e-02 -2.527850392076835817e-01 -1.982853502335775175e-01 -6.854552641070371655e-02 -1.433753611176501880e-02 2.300304965076375718e-01 3.493967926829005810e-01 3.002426241122474471e-01 2.817320014370204573e-02 2.382468741138683496e-02 -1.277621916730543317e-01 -3.029149723381822923e-02 -7.978479724317670552e-02 3.036160311466356600e-03 2.779200923616669816e-01 1.035501509234254963e-01 1.299010560870923481e-01 1.241309871635620510e-01 2.863199798240204652e-01 1.204760084859907709e-01 -9.378640304936347594e-03 1.929381533415949201e-01 1.876760214311939401e-01 2.326882242520055266e-01 1.928777423367349919e-01 2.230580929854210914e-01 -9.479750209698586949e-02 -8.253046280756343167e-02 -2.031165497999653374e-02 -1.093256368187030397e-01 3.635044941520181733e-02 1.758654450918467060e-01 1.096888833012292230e-01 -2.564656135423858119e-02 1.299196631101411370e-01 1.847722743242399823e-02 -3.878477374671263078e-02 4.650606574505695978e-02 1.933124822604456172e-01 2.254843865800069680e-01 2.204266110637067011e-01 8.854663238858365149e-02 1.173497959225978937e-01 1.497749827043430570e-01 5.725766117637820507e-02 -7.488739046012564404e-02 1.048042365516485552e-02 9.853991222192892696e-02 8.316971923261856636e-02 3.396522440899192585e-02 1.353419404646333257e-01 -1.159816027107555964e-01 -1.549182627579556715e-01 1.057258390254747771e-02 7.529738106576364109e-02 2.043744266431171408e-01 1.641325975523664771e-01 2.053491653637842251e-01 -1.654789706430886270e-02 5.114108352997531054e-02 4.649397827665460031e-02 -3.075117259626222732e-02 -1.309037506697603437e-01 -6.752465200532603573e-02 8.998138782840651995e-02 1.038324184195483085e-01 2.958654452481909725e-02 1.328063350728141134e-02 -3.999932313333114109e-02 -2.952439659181443909e-02 2.375472396861726398e-01 2.663505173536246939e-01 2.395468126002338327e-01 2.043967325014917902e-01 3.526185514131102705e-01 2.082015724337236973e-01 1.125244277003625559e-01 7.357115108191057684e-02 1.299588048063063384e-01 2.077753657473077609e-01 6.180955645697888690e-02 -2.214514090778620450e-02 4.496464906668737327e-02 5.485546833627517882e-02 -5.409889646175709832e-02 5.512580732380276127e-02 1.829714337887521081e-01 1.682297989998159382e-01 1.248464128618480273e-01 1.412876424070703685e-01 -8.442559358012452497e-02 -1.213236458985266081e-01 -1.088131339238994910e-01 -1.456920239169745279e-01 -1.300894720117437564e-01 -3.692030012174946779e-02 9.731758675749629939e-02 8.549568011171974902e-02 -1.337559545558091728e-02 -1.828077365877552041e-02 3.391715127844954769e-02 2.827992237009052667e-04 2.924314747724783281e-01 2.589471705377480171e-01 1.587620546422975343e-01 1.870864560293536150e-01 1.795866157038224498e-01 4.129239243272689319e-02 1.726930065297156702e-01 2.925233005290771571e-01 1.745380611289627515e-01 1.037763591403695895e-01 2.376780453774525736e-01 2.083510923446885155e-01 1.430158108267114148e-01 1.595548040863195571e-01 6.202687573329171422e-02 9.455741321698597768e-02 1.835501562431935407e-01 8.806077275537785298e-02 5.023882594722583333e-02 2.491368911151937288e-02 -2.051868021640583795e-01 -1.167323020651914178e-01 -4.225198533309454385e-02 -9.037905457203103399e-02 -1.163403810720707171e-01 1.153588114241355655e-01 2.362870256769005195e-01 1.933672609668442011e-01 9.279267121666440188e-02 -4.988395751300918335e-02 -1.754189390224462561e-02 7.269127173251452301e-02 2.985444954744148616e-01 2.896060270554412508e-01 1.117001771592203707e-01 1.091901565369225585e-01 1.152993087171336195e-01 1.210887875939330172e-01 3.520694288421759022e-01 3.850608582236851318e-01 1.281206089262685310e-01 2.562521532747104591e-01 2.113958214525846757e-01 1.439322557017311544e-01 1.861248215574986542e-01 1.994581527906488239e-01 7.749959380589421798e-02 1.433071170249390347e-01 1.804955804768448302e-01 1.575963903375384167e-01 8.240207972262852953e-02 7.260447796315314117e-02 -1.318599679935297531e-01 -1.833726930360730367e-01 -1.555723781430211894e-01 -1.762951797141302235e-01 -1.435501855391297932e-01 1.180905938403032651e-01 3.362873412210815038e-01 2.359561243513723650e-01 8.548351413855584391e-02 -3.144709630367480829e-02 8.013485777448828284e-02 1.154201119243813689e-01 2.733783080931521114e-01 3.337842411510392182e-01 1.914691468116445638e-01 -3.508430127593639702e-02 7.506544979321058686e-02 2.804557521049555469e-01 2.411411053128737214e-01 2.308572851123597558e-01 1.845035738999542541e-01 2.235828185708877425e-01 2.337493480871565277e-01 1.248627179239308466e-01 1.260765575107015701e-01 3.571680385974959071e-01 2.213566964791003899e-01 3.873294123433518310e-01 4.579130823391796001e-01 3.463809942507319328e-01 2.685641810918788508e-01 2.482300372843740943e-01 -1.074820846428044957e-01 -1.785532839885809464e-01 -2.057188274656377436e-01 -2.396026912048065949e-01 -1.380030118388360094e-01 3.904302077025698092e-02 1.649025178768420141e-01 1.992059854309453371e-01 1.041765344162418339e-01 -2.888077187721443950e-02 -2.379371748309740131e-02 1.181119770661005625e-01 3.325791490386096338e-01 3.005913023759667624e-01 2.124402724330121117e-01 -9.252233856957993441e-02 1.415461386908250518e-01 3.523041955674960368e-01 3.344048574227850845e-01 2.820734084923525176e-01 2.055156514527729239e-01 3.462987267910787592e-01 2.077818644422894656e-01 2.041267442169825419e-01 2.093175234785780714e-01 3.200651466799410150e-01 3.477263620395190657e-01 3.597381866446296983e-01 5.682702156246293157e-01 5.029310198027008294e-01 3.678423217587591942e-01 3.283148878297409978e-01 -4.654697580346167651e-02 -2.492401141518174601e-01 -1.657236649396847672e-01 -1.411441907516519101e-01 1.317479256133464449e-01 7.016007499733269148e-02 1.540768214565686745e-02 1.597053019686245356e-01 1.469478631836063087e-01 9.949464586330394877e-02 9.286705455780426555e-03 7.696318164135917961e-02 7.950506297370710240e-02 2.372788743526478838e-01 1.466884937118455579e-01 2.568959812464140929e-02 2.249070307739430286e-01 3.972468840981993599e-01 4.119461172310867614e-01 3.109898735033074790e-01 3.221907417465850743e-01 4.238247130311962874e-01 3.952754216416578537e-01 1.647049130144197238e-01 2.794164423610381864e-01 2.774555816560471677e-01 2.876561917713037486e-01 2.974234971972030683e-01 4.419238215568877526e-01 3.862638253334158001e-01 3.688071211962444806e-01 2.535470331367589147e-01 -8.804367405716100048e-02 -1.095447729226379507e-01 -1.628520346396644114e-01 -8.648175595020751727e-02 1.686193747791838587e-02 1.675507743293692120e-01 3.008172818384968056e-02 3.967721132497335768e-02 -7.818763803534933832e-02 -3.535517753963764165e-02 5.791912780783682602e-02 5.041782187201297033e-02 7.854645136183666110e-02 2.839290303159872075e-02 4.388660691198194297e-02 -3.246398113077700147e-03 1.963057107694934356e-01 3.247489637086476422e-01 1.881679182621870117e-01 1.217428188908686870e-01 1.537484212763568781e-01 2.568607935190920788e-01 2.088096316543759934e-01 2.551333240397304358e-01 1.765447664119982885e-01 1.869846296318981027e-01 1.558138326160698472e-01 9.364810302649999307e-02 1.073010124633980433e-01 1.287664442765447392e-01 2.141405244789139628e-01 4.863821139988712405e-02 -2.592728683805795020e-01 -7.530575307228085102e-02 -8.650037427067974738e-02 -8.025515503907684756e-02 -1.331236729715552791e-01 1.102818758139315347e-01 5.642768390257306421e-02 -1.669473879890411364e-02 -1.596313957357651733e-02 -7.691227283864723874e-02 1.430736567892108846e-01 1.314451819527590049e-01 1.363762638250114456e-01 -6.456960777915653205e-02 1.488587931849975551e-02 -3.576082046294355721e-02 8.994640922577873399e-02 2.115549147480971781e-01 8.967296421760685698e-02 2.082379030400691514e-02 7.031044871350636272e-02 4.874109787445056463e-02 1.503485581156741580e-01 1.455049443656268315e-01 7.961170769008513171e-02 1.372584141536896951e-01 1.370100035021103446e-01 1.125465603300088158e-01 1.526389635357069119e-01 1.526853642654907861e-01 1.208094775215401290e-01 1.877413054940221260e-01
-1.554593827950760732e+00 -1.743552550620905972e-01 -2.463388515520980593e-01 -2.591841692543941367e-01 -2.209985368441268749e-01 -3.924207560842424281e-01 -5.673039303186051541e-01 -4.244351556616364762e-01 -4.956390239352532201e-01 -6.434689721972393084e-01 -6.838864702803110207e-01 -6.370787480788763224e-01 -4.499468195885116262e-01 -4.045721590236973642e-01 -5.727435511323087924e-01 -3.822953074110194693e-01 -3.597512837686737686e-01 -5.578494350651861389e-01 -5.280259562673672580e-01 -4.903105564096747471e-01 -4.845251932994834587e-01 -4.334638959265988412e-01 -5.066845691436306920e-01 -2.784407647461953905e-01 -2.405866220126030575e-01 -1.341844785615683988e-01 -2.517635670149998006e-02 -6.615669181999939141e-02 -4.360305194448121924e-02 7.793201793564119573e-02 5.138930664235780155e-02 -1.371810591006459856e-01 -9.664752749078914240e-02 -2.772908231240006627e-01 -3.677006566895237305e-01 -3.410661599416989209e-01 -2.706179621225931475e-01 -4.126531152732919039e-01 -4.811041592454798899e-01 -4.625657319471503381e-01 -4.430352035943656563e-01 -6.053966791040150675e-01 -5.037950657551516498e-01 -3.998142856201853945e-01 -3.960757235089734096e-01 -4.504354279258876437e-01 -4.976198992561258194e-01 -4.279459687439834403e-01 -3.602349054237718451e-01 -5.059074497557264349e-01 -6.067732935161819219e-01 -5.151738945509755085e-01 -4.841892990075938874e-01 -4.681321186536566703e-01 -3.318184973534166748e-01 -1.988511364176065443e-01 -1.692959605228809006e-01 -1.679317200006002209e-01 -1.363233471572850852e-01 2.736406220033505907e-02 1.388757737461278063e-01 8.344702365772788122e-02 1.743985110053601351e-01 3.171785532359053250e-02 -3.353755610033373746e-02 -2.326099510157778605e-01 -3.654993603739554731e-01 -4.697576666132652901e-01 -4.107195024021026430e-01 -3.831255080037703209e-01 -4.668060017226255409e-01 -5.566707915589493849e-01 -4.614446925783275977e-01 -5.556906388742576253e-01 -6.051710855368543918e-01 -4.460634272686218038e-01 -3.455138083520949976e-01 -5.133799379301214882e-01 -3.616786724241525253e-01 -4.385919715888387249e-01 -4.067432140940341334e-01 -4.959736612747759898e-01 -7.697707601164198721e-01 -4.735452995666430409e-01 -4.836370768495238393e-01 -4.181850620896873094e-01 -2.293709718438065592e-01 -5.972447025486507521e-02 6.079115020503574052e-02 5.764065822696634589e-02 1.022365763886237677e-01 1.665555923726230181e-01 1.829739354384206096e-01 9.468969066425059200e-02 2.140357937117643161e-01 1.170605625738432853e-01 1.780899257312905659e-01 -5.219638191978024366e-01 -3.213938713675035252e-01 -4.578241552034401085e-01 -6.079496021804248196e-01 -4.833367201010587699e-01 -4.516285815430645112e-01 -6.651655598998382768e-01 -7.358227396240712981e-01 -9.150470880079062397e-01 -8.478246337943480260e-01 -7.925330352580005622e-01 -6.676591336810102639e-01 -7.392866488463536445e-01 -8.101455089483436955e-01 -5.981832841220658947e-01 -6.519582837673145725e-01 -6.576017097229958086e-01 -6.890877185013072337e-01 -6.625616630966884024e-01 -6.349595934248766227e-01 -5.231382036178241490e-01 -2.945413491481814749e-01 -1.253670935192945923e-01 -1.293358321986386172e-01 -4.070517266136482182e-02 9.093436036733621233e-03 3.279293669137593736e-02 -1.039101025779764348e-01 -1.003485395230573479e-01 6.060879262659904509e-02 1.610680759538662132e-01 1.161029531421858829e-01 -5.637234329373599362e-01 -4.389794128375993920e-01 -6.483092344353920122e-01 -5.422422208011299372e-01 -5.037048611638251794e-01 -4.979966690356925074e-01 -5.809484254161865202e-01 -7.748947945731561315e-01 -1.013836843209739547e+00 -8.649993621212948014e-01 -7.953136496436870040e-01 -6.590520275685080032e-01 -9.433885312712724236e-01 -8.989186017147763330e-01 -7.085554035064816070e-01 -7.220980133772817444e-01 -7.648131130395203758e-01 -6.683062311959541146e-01 -5.995237020733039657e-01 -7.051087318863126230e-01 -6.479320801002993457e-01 -7.222197937812341317e-01 -3.678527389034058626e-01 -3.423159542566782676e-01 -4.012871065756007383e-01 -2.680829120502759011e-01 -4.442450344315683752e-01 -3.569206840278129622e-01 -2.600817481992177549e-01 -1.202703213853739683e-03 -3.125936488736372199e-02 9.636699068418935754e-02 -5.493386197145816441e-01 -5.010551396104607758e-01 -6.747031242940625395e-01 -4.397850673317641457e-01 -5.688581034101025669e-01 -4.885731627169108693e-01 -2.954146357033902159e-01 -5.218130676649667121e-01 -6.861839007305300386e-01 -6.751730264226170064e-01 -6.096567186189426613e-01 -7.931800651656005785e-01 -8.388715797926480366e-01 -7.990565864924217276e-01 -7.709553855824138324e-01 -8.213798438473298713e-01 -9.356106268965149741e-01 -8.555309337707631689e-01 -7.374714671525303133e-01 -9.165478853103421475e-01 -7.078504046662770222e-01 -7.255650405719130669e-01 -7.311323334967659848e-01 -5.217724025547614275e-01 -5.003615574702561242e-01 -4.700151509072072464e-01 -3.077884665570519429e-01 -2.183050420151820825e-01 -5.521381396161194333e-02 3.731282958477538658e-02 1.062012465639235528e-02 4.326255027806864828e-02 -5.633902734254765399e-01 -4.881739888899849777e-01 -6.078147425639004453e-01 -5.566040826712922440e-01 -5.812059270114693366e-01 -2.430022393320325491e-01 -3.307485794261107448e-01 -6.021194246015636464e-01 -7.540805615416416030e-01 -8.329614788711344753e-01 -8.443439607647291734e-01 -1.095299634482031381e+00 -1.081954357816418577e+00 -9.046631784903118589e-01 -1.015963865861284177e+00 -8.464091618248791304e-01 -1.027430546567162484e+00 -1.248097204661915427e+00 -1.000399674336366562e+00 -1.231871990124917104e+00 -9.498400561400975883e-01 -6.824426074863593206e-01 -5.821364022638391145e-01 -6.190809027780946883e-01 -4.639625378846328196e-01 -4.341419410686559455e-01 -9.568664710950043617e-02 7.481310993338313731e-02 2.815055291716836092e-02 -3.485052742991665009e-02 -4.710651821115487831e-03 2.235638010492909666e-01 -4.155070372613968166e-01 -5.136679761582625403e-01 -5.192202463152633118e-01 -4.677148540427795709e-01 -3.268860621444217296e-01 -1.600409416934695517e-01 -2.255521671496313885e-01 -6.218045398229949949e-01 -6.372545816401440355e-01 -6.961532870385294114e-01 -1.031911811602964191e+00 -1.193166992159848450e+00 -1.048767396602517721e+00 -1.210031892720221824e+00 -9.773449354742942408e-01 -7.381994545276120423e-01 -9.441737474477763792e-01 -1.128416249808569916e+00 -1.163679632079677173e+00 -1.120141162387291889e+00 -8.944235444990422668e-01 -6.056619802709485301e-01 -6.561495270775222766e-01 -5.094545852490919291e-01 -5.607298855471136712e-01 -4.078711982241909895e-01 -1.410731173247244952e-01 3.606610851201356299e-02 -8.063659292153245450e-02 -2.472815711766349345e-01 -2.310918478790361108e-01 -2.966081760185356950e-02 -4.565520195481012067e-01 -3.288315521136391251e-01 -3.118666423224889517e-01 -3.023504857680864855e-01 -3.250387625907584788e-01 -2.756047580926208607e-01 -2.214420999500204545e-01 -4.425753943139653090e-01 -4.777821117641891657e-01 -6.804526086582423083e-01 -9.064261453433045679e-01 -8.958228555409363247e-01 -1.187054757398625870e+00 -1.081748044514633689e+00 -7.458805817211244804e-01 -6.887707255934588657e-01 -9.102418769405138388e-01 -8.120051213664721823e-01 -6.453499426035116393e-01 -6.730166051384887105e-01 -7.698977721729989288e-01 -8.490867076727180995e-01 -5.923237074042663197e-01 -5.677678098445444466e-01 -4.438904403971902779e-01 -3.466728175059034522e-01 -3.339995976768809216e-01 -3.768233882801382828e-01 -3.997300877845662015e-01 -6.494701552420336643e-01 -5.922829771717657010e-01 -2.132601432145107556e-01 -2.829582473617398564e-01 -2.517385647668658466e-01 -3.029356749619082079e-01 -2.697644836355601594e-01 -2.831492899295162680e-01 -3.268006137991502635e-01 -3.825022735988480305e-01 -4.770592048431538390e-01 -6.658244188163788824e-01 -7.313547047493349496e-01 -6.510834662330580169e-01 -6.620132522265443908e-01 -9.878392411651317762e-01 -9.435457729205967148e-01 -6.793760645288170474e-01 -8.019659183035744432e-01 -7.721497369868126626e-01 -3.868520434675999931e-01 -2.878164965410633380e-01 -3.436939146497833275e-01 -5.546315142368722917e-01 -5.900453017730682426e-01 -8.025602494783826701e-01 -8.092262693200569235e-01 -7.027299372258584143e-01 -6.139093536161215336e-01 -5.931191021186816847e-01 -7.026621248831251831e-01 -5.434348459750378835e-01 -5.913872396265458242e-01 -5.675874846507895644e-01 -4.548308866063540123e-01 -2.231622130709261242e-01 -2.971485386358892478e-01 -1.699311915047654609e-01 -2.223836214097346109e-01 -1.631560615785205559e-01 -4.072707407358756582e-01 -4.063150255188408555e-01 -3.000982979265608974e-01 -5.291856060554795960e-01 -6.385360189796365216e-01 -5.056686994630033016e-01 -4.762036724467488824e-01 -5.803834703655158522e-01 -5.787986745255071508e-01 -4.343369660642060759e-01 -7.504525308696199382e-01 -8.305943573664128499e-01 -5.080741927885473741e-01 -3.297249817408989814e-01 -2.217766264437409096e-01 -3.615278117146299985e-01 -5.657094111890200727e-01 -6.333127389849355637e-01 -8.327273191203083957e-01 -8.748032912451054743e-01 -7.590003133637787114e-01 -6.525374101707276386e-01 -6.392766075012676907e-01 -6.149347227844859098e-01 -5.231296054711310761e-01 -5.556450626085139843e-01 -5.422853385467979459e-01 -4.583862332361252623e-01 -4.397109358275334556e-01 -2.270775770923119108e-01 -1.921900776670013578e-01 -1.622657853114845006e-01 -3.424518317637705311e-01 -3.706827272555338615e-01 -2.131601047210519573e-01 -3.409832840098946383e-01 -5.216166530883439290e-01 -5.124792413571607197e-01 -5.109366910123237515e-01 -4.229031571121840138e-01 -5.127463071629190239e-01 -4.762730201890245096e-01 -7.659408518773481722e-01 -7.955378134388292333e-01 -5.246848070117446916e-01 -4.911243371592730611e-01 -5.494411437071856641e-01 -5.710913543841175111e-01 -6.902135958503944346e-01 -4.934339424052722189e-01 -7.333337478620662875e-01 -7.403408685244050602e-01 -6.299200394720934071e-01 -6.065026792654235610e-01 -5.581407631925251467e-01 -4.842505786715238236e-01 -5.846044859006825911e-01 -4.424776613047670115e-01 -2.662182666598310599e-01 -3.922423028488067898e-01 -2.476830513583398452e-01 -1.622328851804073213e-01 -2.790030688872797704e-01 -2.532193928693224350e-01 -3.905881186118390080e-01 -4.059648779237654548e-01 -2.460212076896834132e-01 -4.628337997887273514e-01 -6.136183734329263562e-01 -7.502379431919820041e-01 -6.738608343127645561e-01 -6.043332293581457071e-01 -6.097582514255051045e-01 -5.337604953460957091e-01 -6.301172773286948248e-01 -6.345591769417385786e-01 -4.703563943518048740e-01 -3.748085854606759137e-01 -3.906137201078876964e-01 -4.101145544974225676e-01 -7.648212341173027395e-01 -7.120412220657036384e-01 -5.950821904939129769e-01 -5.860531448630768026e-01 -6.387900068830303368e-01 -6.672205055031407150e-01 -6.741835344274755837e-01 -5.429206757991480448e-01 -5.078794494238590973e-01 -1.941079158565808538e-01 3.272593839775322921e-03 -3.334566481043391151e-01 -2.854837038415627415e-01 -4.862214211116597240e-01 -7.190191530001317499e-01 -6.288028735103217137e-01 -4.792451871529104235e-01 -6.055116085766328871e-01 -4.073002354929503022e-01 -3.820257216796721922e-01 -5.017692836114940880e-01 -9.661941800365915212e-01 -8.930611404390508268e-01 -8.616808616907700724e-01 -7.869944941702208263e-01 -5.801558023300025235e-01 -4.912967731749534051e-01 -2.738960124302873833e-01 -3.586627848665110974e-01 -2.366833954799636985e-01 -2.083644116857923390e-01 -2.213162183139285588e-01 -4.368228274861687410e-01 -7.829471164412934447e-01 -7.633305857034689001e-01 -5.369585606483538998e-01 -5.538023168446990496e-01 -6.464788232351252883e-01 -7.229076146500319489e-01 -6.000329992426177705e-01 -5.580418428715009371e-01 -7.661009832670190312e-02 2.146585963870092234e-02 -4.706411365117307843e-01 -5.594309223193908442e-01 -7.888101487002829870e-01 -9.169379009279488013e-01 -8.621120610368506743e-01 -8.649277838678098851e-01 -7.439094325858992551e-01 -6.493130666932427353e-01 -5.521101893484764433e-01 -5.362390062777981914e-01 -1.006033813461246984e+00 -9.217244717951732502e-01 -1.048759116669147895e+00 -7.277800233176812128e-01 -6.580004964844233806e-01 -5.194507675929137536e-01 -4.894640121529912902e-01 -2.601362183804143413e-01 -1.616756439475581786e-01 -1.178524859293950539e-01 6.901801381588983098e-02 -1.060702812742803924e-01 -4.748930275732671791e-01 -6.345506245416557833e-01 -6.442579696344328255e-01 -4.534117939129871377e-01 -5.211816108752488352e-01 -7.398783074635099100e-01 -6.466406993660233082e-01 -4.987343048172914739e-01 -1.849648781884555282e-01 4.147480086715988473e-02 -3.085760584278866570e-01 -4.728666665096122879e-01 -7.324037077742242552e-01 -7.239795732988019150e-01 -7.809713263540264405e-01 -8.593117127026377311e-01 -9.860978027119299272e-01 -7.899350363646382434e-01 -7.964973281087313062e-01 -6.598352381844445613e-01 -9.865294976515670555e-01 -9.391536862549176856e-01 -1.017730016715038044e+00 -7.954449817700914860e-01 -5.916539498292157084e-01 -3.443452380215312747e-01 -5.280234381608013283e-01 -3.360453574053999248e-01 -1.706481294102230734e-02 8.302555836672056988e-02 2.169604103237599002e-01 1.076324291480005857e-01 -3.518820213363770821e-01 -7.344531008181534038e-01 -7.383558185974632426e-01 -3.482281711313469086e-01 -3.854525354306182483e-01 -4.644378615594668136e-01 -5.435345118270795695e-01 -3.838387115245287529e-01 -3.192284378017602453e-01 -2.284953710634560764e-01 2.417442102845707846e-02 -2.926772174653460290e-01 -3.769262972495610597e-01 -3.909115444202196921e-01 -5.589229938581645740e-01 -6.390545495143997723e-01 -6.960763437604757797e-01 -6.102896503518171478e-01 -5.662986046814605379e-01 -7.044941457786975114e-01 -8.990070797981011275e-01 -1.051033103720097950e+00 -9.508191441950863965e-01 -6.599175859324201143e-01 -4.856119811989233481e-01 -3.242214472971357564e-01 -3.462361266269107229e-01 -3.774274384008737826e-01 -2.178957056195615360e-01 -1.063912849682589479e-01 8.919057354717566111e-02 4.687759283289705259e-02 -2.622971474481008425e-01 -7.444883627288627626e-01 -8.568491821239736517e-01 -3.464860759919636823e-01 -3.342684116785860082e-01 -4.359825455333788402e-01 -6.388602472510357400e-01 -2.949604589356999429e-01 -2.259234054308580375e-01 -3.029269241768168808e-01 -4.465020044259183918e-02 -1.154831016993105586e-01 -2.515685403850839719e-01 -3.671057882046653842e-01 -4.781075417103493597e-01 -5.729514235002607370e-01 -3.207578099280911088e-01 -2.689519669740130237e-01 -3.789096607028782371e-01 -4.793243637929394674e-01 -6.131729638652076986e-01 -7.742564126819384551e-01 -8.288640276928326278e-01 -5.990657998319895983e-01 -4.746358258156546661e-01 -4.670392996750034054e-01 -2.949405484653030429e-01 -1.148590292196497442e-01 -3.314935115350148287e-01 -2.143082106825342503e-01 3.944776564407875830e-02 -3.010382471325401266e-02 -1.740919059444793748e-01 -5.884359356402273367e-01 -8.531167715807745910e-01 -5.964854363583024233e-01 -4.760681312988237490e-01 -4.912374660914411439e-01 -4.553650285740684089e-01 -2.971557056589080315e-01 -1.317602621633783277e-01 -1.697979347616746237e-01 -1.824380556470796555e-01 -3.521882304260162133e-01 -5.667726548641187634e-01 -5.544907986731664185e-01 -6.019998219117913552e-01 -4.772861155451739723e-01 -1.383506755234651664e-01 -1.022724990767455433e-01 -3.872334528187321157e-01 -2.278754524731778919e-01 -3.427737571961553820e-01 -8.437332599407550981e-01 -8.363313047669866940e-01 -5.460847757231541699e-01 -5.140852079750062309e-01 -4.647151766960022079e-01 -1.289262192733587331e-01 -1.700699480332583668e-01 -2.338319503015210965e-01 -9.463176269450160327e-02 1.214161595150620443e-01 1.225342053913946183e-01 -1.054418807655452955e-01 -5.840845411287108879e-01 -7.956878828377017543e-01 -6.659445849312176646e-01 -5.180733429164480208e-01 -3.039394932232357682e-01 -4.457541000670025566e-01 -2.642875833892314730e-01 -1.473552443507900045e-01 -8.802836779976089265e-02 -3.735100600434927420e-01 -6.444762654691649217e-01 -8.259520750724292926e-01 -6.794149733124541513e-01 -7.633831971079595435e-01 -7.134670576845730805e-01 -2.666497405362159845e-01 -2.760865016191821342e-01 -4.343949749190191278e-01 -2.498936908563100245e-01 -4.614938274965741383e-01 -8.833013320184279760e-01 -9.364735955504500664e-01 -4.564589605419054896e-01 -6.325303692029464742e-01 -3.944526889818120718e-01 -2.479477533391392929e-01 -3.126785072010545008e-01 -9.920996937832880780e-02 7.248647159573418097e-02 1.491833731146681163e-01 5.934839549003265158e-02 -8.814856532494821928e-02 -6.011604465204338776e-01 -7.305571426956981584e-01 -5.954091499601332771e-01 -4.235605709931132834e-01 -5.821507063626354950e-02 -1.507887185890803561e-01 -1.285665602195171786e-01 -2.035972578211086570e-01 -2.522730916951418934e-01 -4.691978597977652932e-01 -5.299338599204597156e-01 -5.653273593115160089e-01 -5.673840062216207736e-01 -6.600170911883666003e-01 -3.870520464993445486e-01 -1.370016173331511100e-01 -1.272584505249347020e-01 -2.695420729391082570e-01 -2.271471890043721686e-01 -4.447584865472973825e-01 -8.779693218832829160e-01 -8.903863927205588613e-01 -6.495570974149686982e-01 -5.814846184711995880e-01 -5.418639356691925535e-01 -3.830514084764827243e-01 -3.501213346753613842e-01 -1.346543516470410928e-01 -1.683550966940840915e-02 -7.661408779817700798e-02 -1.521752270102412208e-01 -2.612873274736184359e-01 -8.679974819743236925e-01 -9.599349176467016909e-01 -7.764730321697510540e-01 -4.338764701853392580e-01 -2.273549141930086004e-01 -1.257512399260296843e-01 -2.060267833554668138e-01 -1.079966309218459430e-02 -2.749078684494157820e-01 -4.829880620204490826e-01 -4.437228855130584959e-01 -4.303792741217842277e-01 -6.580357721783446356e-01 -8.846338944913735292e-01 -4.881097562934532119e-01 -2.151250162546456957e-01 -3.630868033648350091e-01 -2.293701378998970752e-01 -1.372210354020497181e-01 -3.660693107792393208e-01 -8.652401406108328752e-01 -8.639301325576118629e-01 -6.128952423573572617e-01 -6.005483917688153594e-01 -5.114990453235636059e-01 -3.646248812724538491e-01 -4.800714476871362768e-01 -2.190205470994237291e-01 -1.189249181170969893e-01 -4.197104827342861277e-01 -2.267272318252696317e-01 -5.509743917021553417e-01 -7.900208953972698289e-01 -1.063607859486172869e+00 -7.066304647345786893e-01 -5.390961227157037294e-01 -4.197692194380845954e-01 -3.194454857490713895e-01 -2.106171044612222265e-01 -2.585531216847357372e-02 -2.444258603990903111e-01 -6.308794190740827368e-01 -5.653462702386433669e-01 -7.740175091142204034e-01 -7.745821097739091776e-01 -9.676392259685637764e-01 -9.375560426822976412e-01 -8.855827541266245717e-01 -5.595590008538871007e-01 -3.081912383183108006e-01 -3.364847698592328129e-01 -5.042809179944058862e-01 -7.991044918364779148e-01 -7.497438828595341942e-01 -5.026372886722948463e-01 -5.264931920820639100e-01 -4.414933796123606258e-01 -2.330421777577774411e-01 -2.746998518011559698e-01 -4.428317033411956205e-02 -4.915945105134782514e-03 -1.103142173535875958e-01 -2.201288077530433596e-01 -6.456632125118063614e-01 -9.099679491830598987e-01 -9.728284212475374337e-01 -5.190606516681603999e-01 -4.989127051490303000e-01 -4.896390888461907842e-01 -3.596960890493594576e-01 -2.205448787398399391e-01 -1.487324232857926976e-01 -1.908982107157256025e-01 -6.925472024168075613e-01 -8.529653233694449721e-01 -1.152492079242402712e+00 -1.004831618236782909e+00 -9.973999683450099907e-01 -9.604366496048145629e-01 -8.602798279900628620e-01 -5.668716321297175842e-01 -3.933602603657338492e-01 -4.590865365088107053e-01 -5.467166967253944687e-01 -5.337229966128501646e-01 -6.111943534546137036e-01 -5.960990782937511945e-01 -6.687794490695675442e-01 -2.251326044376066871e-01 -1.657359772027016953e-01 -2.774491210657387130e-01 -6.945290664388487079e-02 1.152567027470582928e-01 -1.899366301507121046e-01 -3.876720072728456756e-01 -4.748975932358658891e-01 -8.526209552455035201e-01 -6.582498192829880912e-01 -4.052235729271267406e-01 -2.808303888068884868e-01 -2.861527374193224560e-01 -2.826723497799459306e-01 -1.741522017947622625e-01 -1.542226275613779451e-01 -3.014421973949203415e-01 -9.201876693966891674e-01 -1.018146315300264337e+00 -9.202793982272476914e-01 -9.082624260008209660e-01 -8.616426298699664255e-01 -9.402351879853257932e-01 -9.506838929263513593e-01 -5.889108179556145073e-01 -3.835686319394679966e-01 -5.671742716518186622e-01 -7.095127684394637591e-01 -5.234570462704365434e-01 -6.401941290643243798e-01 -7.699228130392811176e-01 -7.252757683995213478e-01 -4.438494861997482333e-01 -2.194948668214031784e-01 -2.413302947828233069e-01 -2.786210158208216048e-01 -1.429370096833690873e-01 -2.986022793494153005e-01 -4.374741156353456062e-01 -5.040229922396459727e-01 -6.092114377657797952e-01 -5.104250098975143812e-01 -4.120800154749628685e-01 -3.057015020935257565e-01 -2.108150247427520718e-01 -2.546128032215101422e-01 -6.328569528433664049e-02 -1.768832412587701963e-01 -2.504019936849902761e-01 -6.008496201067804465e-01 -6.731226255224939115e-01 -9.627531723325313262e-01 -6.994664191269510667e-01 -7.230657666144695295e-01 -6.789530441376518954e-01 -8.667016520816063219e-01 -7.540965368368388599e-01 -5.816515308317027344e-01 -6.936378463050668630e-01 -6.246477563606411820e-01 -6.812128391734746380e-01 -7.957201733707292002e-01 -6.903031082902284510e-01 -5.390403792538193128e-01 -6.892463076837873626e-01 -2.577112429972002183e-01 -2.038026191742176030e-01 -2.427340510372168192e-01 -2.613099990209993839e-01 -4.233071464309471899e-01 -6.225339060704848659e-01 -5.293290310067775284e-01 -2.772035796183698886e-01 -3.805409011144244569e-01 -6.017508744033110979e-01 -4.191055517635557948e-01 -3.228252140485463606e-01 -2.171456342082953850e-01 -1.241745038958841085e-01 -2.479447791242552490e-01 -2.302472921086460289e-01 -6.095062929194861034e-01 -5.438362338213159619e-01 -8.051346063834252664e-01 -7.214665793381729308e-01 -6.773803801976299166e-01 -6.726655017176985663e-01 -7.053217139534452285e-01 -7.940861459212124052e-01 -8.811828958991452243e-01 -6.407660476314254172e-01 -7.118478825996645831e-01 -6.896572716057342012e-01 -7.479895225363966116e-01 -4.703380314438866394e-01 -4.149635867355268015e-01 -5.945851450007461070e-01 -4.564164982521295988e-01 -4.665065538085829133e-01 -5.421426885431717135e-01 -1.656089007007857661e-01 -2.550036384437141534e-01 -5.250146395067355476e-01 -5.865499820907196238e-01 -4.235864573934160493e-01 -3.599491822683040243e-01 -5.560588255384039114e-01 -5.543895862878323033e-01 -5.000515353501504556e-01 -4.198469960949450241e-01 -3.764576167194479961e-01 -1.808453323402620383e-01 -2.236078502627930065e-01 -5.104004351895632396e-01 -5.816903908473491924e-01 -7.238311011428644193e-01 -7.547280445782594827e-01 -7.513684191564355963e-01 -7.761894524481329771e-01 -6.260869034970781843e-01 -7.068015785878788426e-01 -7.294725113658002691e-01 -6.350399744332270169e-01 -6.526994552294974605e-01 -7.283770081202903812e-01 -7.352876947106978811e-01 -7.869574980590761104e-01 -6.196084100191140420e-01 -5.300674920225079134e-01 -4.998700792931895509e-01 -6.617862445083768641e-01 -5.741121022145067032e-01 -3.364656776402508154e-01 -2.217109726016288085e-01 -5.195183973175208081e-01 -5.111475087186945210e-01 -4.580096055637450925e-01 -5.251312607937066446e-01 -5.073326767794397174e-01 -5.067484708324444531e-01 -6.452769904791656463e-01 -5.554498810117248775e-01 -4.006746630167556944e-01 -3.185099051282606619e-01 -3.400595721442254971e-01 -6.438431915674932560e-01 -6.436117845616510236e-01 -7.247058615551070782e-01 -7.683303433919527192e-01 -8.344332990924686611e-01 -7.575502716678331749e-01 -8.278878537073498523e-01 -9.566019086822560302e-01 -8.076436339550203680e-01 -7.688367022634782222e-01 -7.658324899996726831e-01 -8.526897786846946437e-01 -8.508098849404405195e-01 -8.776137817103106809e-01 -8.661069000184620226e-01 -6.500812438452117092e-01 -6.275289872537229696e-01 -6.455150038273025359e-01 -5.623893273556292982e-01 -2.830685233971425019e-01 -4.153520173355993439e-01 -7.371550786800482591e-01 -7.482999429422466653e-01 -6.314772061175933926e-01 -6.412563256957013458e-01 -5.521357406004603341e-01 -6.537434208317778328e-01 -7.721888323722495562e-01 -8.010094948087133071e-01 -5.500459521485767667e-01 -4.350374809793049469e-01 -5.976104526005409090e-01 -8.054648431104467488e-01 -6.590278003398785112e-01 -8.067264271314776858e-01 -9.109044026305527231e-01 -1.040778809065711741e+00 -9.918980633674768788e-01 -1.051702290626549630e+00 -9.884284611200716553e-01 -9.131135769121994095e-01 -8.677290464087360489e-01 -8.135106061920400755e-01 -8.390324373758893950e-01 -8.733614400514025933e-01 -9.312399021328219284e-01 -7.744514613427441185e-01 -6.325314554180381243e-01 -6.358391158811187438e-01 -6.813673034836293940e-01 -5.994544409850537381e-01 -5.316799606008136836e-01 -5.147210348908570765e-01 -6.628287170562674468e-01 -6.985130475501601932e-01 -8.215346259952468477e-01 -7.228468558861013138e-01 -7.676514047318973022e-01 -6.764169591667729131e-01 -9.946776845287261803e-01 -9.823831811226415578e-01 -7.218729486382300387e-01 -4.982797361631242650e-01 -6.122805298550799691e-01 -7.372656829614887553e-01 -6.309343077542051148e-01 -8.129676763568465248e-01 -8.612947673714598240e-01 -1.039914847319719282e+00 -9.981716357135060891e-01 -9.068546617045685210e-01 -8.403392490785788205e-01 -8.016047456528204718e-01 -6.837720915795221233e-01 -6.055178989616805119e-01 -6.351486307818622334e-01 -8.218970111712096127e-01 -7.409583412443382366e-01 -6.039403592621420680e-01 -6.384514406363701600e-01 -8.268827306161082857e-01 -6.789829850083404228e-01 -6.133070844522453546e-01 -5.332137903709283089e-01 -6.320485450259352156e-01 -7.526497621614518518e-01 -7.064028154775499058e-01 -9.410287414788593985e-01 -7.747961097229412175e-01 -6.763419128841183792e-01 -7.503888792653524709e-01 -8.570962097520027356e-01 -1.108657015755941666e+00 -7.022782933865772126e-01 -4.842105510304041127e-01 -5.478071089136575811e-01 -8.990001276951320452e-01 -8.305771752746590186e-01 -8.912739765355750521e-01 -1.006888480550166332e+00 -1.025891577265967802e+00 -1.079905452530894649e+00 -8.274474384428720519e-01 -7.184219011953791867e-01 -6.910165485758722470e-01 -6.641097204239316820e-01 -7.459701798797735428e-01 -8.508096883665078325e-01 -8.526686997206148755e-01 -8.701678191082801161e-01 -8.256016094731997157e-01 -8.194060589295925068e-01 -9.406688382277269556e-01 -7.641961755287094427e-01 -6.640054529325434274e-01 -9.793286515294314931e-01 -9.381818778564249284e-01 -8.766222270723744714e-01 -8.658398193240803842e-01 -8.996138494718810552e-01 -7.998232309929167450e-01 -8.879881776429010554e-01 -9.091697395007746207e-01 -9.944458082167763058e-01 -1.014019784106140687e+00 -7.097174382225333034e-01 -5.539365215948924837e-01 -6.581737548251375136e-01
-8.163387990234967084e-01 5.762769010378469003e-01 2.364983247524140020e-01 4.649410497398842601e-02 1.665860720254580263e-01 -1.027069773818223147e-01 -4.506225977196830490e-01 -5.024746934554495947e-01 -4.246639605701302278e-01 -2.269017441675527658e-01 1.090832351683756613e-01 1.483014078442113082e-01 3.776427663140841107e-01 1.068472433450588621e+00 5.203116851348993377e-01 8.196918987106265320e-01 8.238414952954327131e-01 2.603780560759865192e-01 -5.959911814521194617e-02 3.220584037328644844e-01 3.243140830135028962e-01 7.807037313821534041e-03 6.534127574470504074e-01 3.634552324087475528e-01 2.134632375751926436e-01 2.510092043322416089e-01 4.178000770338714531e-01 6.755620418068242206e-01 6.512322146935181078e-01 2.819856401889896391e-01 2.604430056848353603e-01 6.355918678586767179e-01 5.903070668085240724e-01 5.424054715027746276e-01 1.791644423535490027e-01 -1.451524727791800307e-01 -2.148494741149899467e-01 -4.250927028449944522e-01 -6.190380034771073570e-01 -6.263694553517094865e-02 2.262576618286311070e-01 -2.582119187478146977e-02 2.047638081920209741e-01 3.387152035379628057e-01 4.011943171089437654e-01 8.736775485216843329e-01 3.569334871849421109e-01 3.924528103268928869e-01 5.473226271547180222e-01 4.667729831703943955e-01 1.823081764553378115e-01 1.864473643622114873e-01 5.269319893309415415e-01 1.685527425214525254e-01 2.303236869705065637e-01 1.460272131381077643e-01 -8.740667134036136932e-04 -6.733810392886499518e-02 -1.791330654883913631e-01 5.072329950482481475e-01 5.106370045889959686e-01 1.091742313696542899e-01 2.399779518569640502e-02 2.313799069741458159e-01 5.544372223264562027e-01 2.591452620391161976e-01 1.972073397518220861e-01 -7.836317751686899813e-02 -3.182435173963277797e-01 -2.106060696995426529e-01 -9.004875919591176503e-03 3.548531150819906332e-01 7.942285677298543956e-01 3.270046139657792339e-01 6.519550307707674963e-02 1.730405151208452563e-01 5.993535746741466275e-01 1.015273940589263679e+00 8.314852388309416087e-01 6.408236620940022110e-01 6.893987055138415254e-01 6.107249256527114145e-01 2.980131630763556139e-01 5.262250306397543431e-01 9.738962249075863165e-01 8.753795065777278950e-01 6.706436980592098696e-01 7.267614398307584711e-01 7.234449705304436540e-01 8.076481993388873182e-01 8.994913739968206645e-01 6.244930980083233107e-01 7.723799968314726261e-01 6.612031779231897222e-01 3.938540493260991315e-01 4.173022386556997088e-01 6.287309172084492026e-01 1.586148893800536641e-01 1.324407914670338859e-01 -1.631633185627824612e-01 -5.040080089506397965e-01 3.273760535611684730e-02 4.196810552783470927e-01 5.493657587196867365e-01 3.791902939742273215e-01 1.333716851468543518e-01 -1.624726594964356063e-01 -3.096269216883117403e-01 1.619266420246605886e-01 7.524522857926130293e-01 7.154186108399561705e-01 9.624450652368620185e-01 7.807754869988686730e-01 9.630583813590900544e-01 6.972562282612351225e-01 2.276103449620083263e-01 7.319286376358355994e-01 1.274380820080710741e+00 1.437189296581963038e+00 1.128690486074498178e+00 1.214186858804731317e+00 1.484181606947723608e+00 1.354326974137483930e+00 9.062054002632006222e-01 7.708051074329788088e-01 9.301962374035950276e-01 8.539802230046623643e-01 7.557935489460932965e-01 5.569002143646059055e-01 2.191110634955367731e-01 2.997309455621828544e-02 -3.564260928157662045e-01 -2.800340724586120045e-01 1.135231733294592149e-02 5.128963755023023818e-01 4.045202639084233276e-01 2.731747025541753082e-02 -3.729385348147686019e-02 -3.200247419831817042e-01 -1.789965166832968857e-01 -2.285691909963010193e-01 -1.874991509258095226e-02 1.078425482606616276e-01 8.713735812608444098e-01 6.990463171957441713e-01 7.738050106093420366e-01 9.254138184239447673e-01 5.901536502853368948e-03 4.437134715795659212e-01 1.291057238915512162e+00 1.430767383641027291e+00 1.192994543816011221e+00 1.014097222702454726e+00 1.147334337187487119e+00 9.213239854818301433e-01 8.093673159426956198e-01 6.937189348707160086e-01 8.997655286607589842e-01 7.945257726643508711e-01 7.165783949686137522e-01 5.392109131917542930e-01 -1.396640916857314063e-01 -3.366515437832708901e-01 -5.860776056962171410e-01 -3.524727384827487930e-01 4.662713327221659765e-02 5.179794530119676832e-01 5.747611376481677192e-01 8.551354449942373537e-02 -1.433145291227853613e-01 -3.037221725510997894e-01 -4.092495389634528968e-02 -2.482007755257626402e-01 -2.316279108080954163e-01 -4.550861147159990239e-02 6.704195982401471854e-01 5.862060183300672467e-01 3.808778726162528883e-01 5.108469525134287093e-01 -2.130461297939078291e-01 1.380980352222359042e-01 7.980522003366263828e-01 7.680529125618270614e-01 8.180143975342878404e-01 9.163090899693758784e-01 8.939276814771637270e-01 9.340616430270815007e-01 9.312217627205413573e-01 1.006519354124397525e+00 7.778978094222103179e-01 8.846499411891108888e-01 8.501072974203565114e-01 8.099614708437143928e-01 -4.571503795179621132e-01 -6.698011379104451546e-01 -7.752721529617121465e-01 -5.740604839625381706e-01 1.743874644424568410e-01 8.010284647584382522e-01 1.017241783303574287e+00 4.379076337526718321e-01 6.849244113005228951e-02 -7.702766423851609839e-03 -6.352036743041640510e-02 -2.772982978526318809e-01 -4.023626620552096522e-01 2.966626125163631111e-01 7.448958286116922345e-01 6.523149952730263879e-01 4.069158465840877481e-01 3.422377672576413787e-01 -9.968272654228507723e-02 -1.907564764200354313e-01 3.200178596038746326e-01 6.495126212778296049e-01 7.162986739339827214e-01 8.729906701024797711e-01 9.736944627927318630e-01 1.085128970108117707e+00 1.122894533978122888e+00 1.265206867428688042e+00 1.230228065246665281e+00 1.020750124538694514e+00 1.010590450426199327e+00 6.118051969681381763e-01 -2.242557954777151807e-01 -4.769873618082889344e-01 -4.752629500128323081e-01 -2.438178765139958348e-01 1.549053082350749233e-01 9.585102037731394464e-01 1.414641945840538151e+00 5.720618587797952070e-01 6.361530935141553877e-01 3.792298780084379373e-01 -7.835653756071443710e-02 -9.579824896619393293e-02 -4.757239165885289722e-01 -3.832724608773110941e-02 6.077419071498197933e-01 7.829497528496327519e-01 2.864277300834834339e-01 1.614286569104227409e-01 -9.798968844732273975e-02 -7.640037851167294503e-02 7.316622848234216603e-01 8.949419987000075682e-01 7.253928426549633990e-01 9.241797756285737853e-01 1.145380894393708493e+00 1.169305588118974004e+00 1.327044697242153237e+00 1.434172785642271242e+00 1.335046891963278748e+00 1.290730457070700554e+00 1.218496069282444916e+00 9.419583961440642916e-01 -6.405175215835562375e-02 1.879701663564966041e-01 -2.070538998950060827e-01 -7.666938898497691057e-02 3.009539182120217204e-01 9.876782572339961597e-01 1.057321492146258146e+00 6.053846836531082687e-01 2.856290446293487939e-01 5.146858128762137330e-01 4.209062431588584952e-01 5.812349592131536846e-02 -7.645961673113543799e-01 -5.916479250969833847e-01 -3.753850928453641989e-02 1.111106568278569517e-01 -1.540583860283736839e-01 1.749971505815886008e-01 -1.577842058128839375e-01 -1.850325722737073131e-01 6.766671668694221875e-01 1.044394810034120269e+00 7.967841519357984348e-01 9.950021374785577022e-01 1.379153844429306996e+00 1.502358801909110975e+00 1.774741654064487584e+00 1.696052502904393133e+00 1.588632589928888228e+00 1.450367830958005255e+00 1.285160441825435651e+00 9.793608860052621656e-01 -3.297981768520815704e-01 1.704524384409501075e-02 -1.693281990107911583e-01 9.709200305936985242e-02 4.454529250589801537e-01 3.873768606734291353e-01 7.379751671021934634e-01 7.539409994087614697e-01 3.690990919581769170e-01 2.705271996255039779e-01 2.387800577629574650e-01 3.608551478351569308e-01 -3.173458264943922469e-01 -3.735552379268122780e-01 -4.178869222273166595e-01 -9.224889844741633871e-01 -6.561636793753337082e-01 -3.931981454252511110e-01 -7.040564834454229315e-01 -3.012324332749433120e-01 5.440751700064311303e-01 1.197829528321068704e+00 1.088839639248146085e+00 7.850842728522691161e-01 9.527014519575718321e-01 1.424021050621461892e+00 1.399454234500778771e+00 1.211952533254022857e+00 1.110065917893636289e+00 1.064959228635036004e+00 7.924475728674633679e-01 5.724461799741098478e-01 -7.437196658617872824e-02 -1.172589854306878565e-01 -1.240153121451873230e-01 2.830302717576441696e-01 3.323493276671864449e-01 4.160977855479758292e-02 1.425051574704676305e-01 4.644911281252661617e-01 4.203498521596487070e-01 2.504751369625515256e-01 2.059961621234489004e-01 3.927368230565130292e-01 3.200138500742452097e-01 -2.430743837253492023e-01 -5.078354907591240419e-01 -1.113196265635463256e+00 -1.199664303913906105e+00 -1.149657354172342716e+00 -9.051038195356775340e-01 -2.939121654812272277e-01 2.049895309456871706e-01 8.745862397416541700e-01 8.793001818235960387e-01 6.635806455264587900e-01 5.523052940029378188e-01 7.549415979478885097e-01 9.009583909403993118e-01 4.644834950698071285e-01 4.819909538856742559e-02 1.949937800562005774e-01 1.417902104011556363e-01 2.401521066652751724e-01 8.455543782553597704e-03 -3.210467816613218339e-01 -2.728778832689811029e-01 3.049697875492254351e-01 1.271107381017400062e-01 -1.781418268636717483e-01 -1.837445786129354164e-01 2.500392109080531444e-01 2.217742173236728620e-01 1.726271482331766249e-01 1.618211842097338760e-01 1.330098359527259189e-01 1.706599703289378156e-01 -1.067888490711156046e-01 -4.346899619507659240e-01 -5.612438769228144109e-01 -1.021737311371700541e+00 -1.137667058284278054e+00 -9.004147040858984097e-01 -3.098312847123528835e-01 6.749076195131073486e-02 2.188221761776637242e-01 6.921995905268981675e-01 5.872721758945118609e-01 4.791878880276576047e-01 8.025767960969083514e-01 7.276015308933881931e-01 3.424945195804055542e-01 -1.504703269167246282e-01 -2.397978468952707831e-01 1.352319420915485404e-01 1.937182806747074493e-01 5.556657260920916386e-03 4.815788658593646299e-03 5.085276041756913584e-02 3.733640737833132106e-01 4.563764095098482576e-01 1.865392904112337935e-01 -4.978215935805499308e-03 3.727497295808971933e-01 7.229832458654843197e-02 4.817910434886862187e-02 1.534252687835535034e-01 -9.841516301253053212e-02 -4.088741570146990634e-02 3.900102329928545331e-03 -2.963813882724650739e-01 -2.945226604522157565e-01 -6.486873260353507309e-01 -1.021983634508194072e+00 -6.544003510053950645e-01 -2.429314052817465319e-01 -1.871388967074917586e-01 6.919195069136818699e-02 4.965573869271401874e-01 7.648331217108261804e-01 2.849459470334181899e-01 4.472273250784250531e-01 5.076899677511180764e-01 -2.047200666898809501e-02 -2.089100769151393255e-01 -2.383733593420306607e-01 1.360086283251514816e-01 9.060408372226630425e-02 4.584537538471492729e-02 2.428802666550544942e-01 2.707238250673054125e-01 4.080648408192028009e-01 6.369213588344317944e-01 6.302067831749034177e-01 2.969676160698171419e-01 3.908912694439571900e-01 2.491271492488692507e-01 -8.933223375272685007e-03 -1.623034192618992844e-01 -6.374694370414188960e-01 -1.979523617718622341e-01 1.807015450045483529e-01 -2.116024149767648244e-01 -3.695105123874405928e-01 -4.578563722751535225e-01 -4.567939765077740910e-01 -2.317508152784149567e-01 -1.192347977005809717e-01 -2.097034523870420220e-01 9.130924251677238757e-02 2.290398190048335836e-01 4.711565493523732773e-01 3.046407116689434647e-01 1.447293993052850836e-01 1.986766254618699545e-01 -1.547499871073260147e-01 -3.304617524459873557e-01 -1.681180846959834940e-01 1.865787716575767752e-01 3.955527370726781566e-02 1.480141002376707260e-01 1.404404441996856823e-01 -1.191248842206965031e-01 2.619045012426107766e-01 5.911319474138954089e-01 5.522153856938866179e-01 7.117841634682274821e-01 9.474867100983497270e-01 7.191345547424462525e-01 5.628485932324109875e-01 2.608916012030591536e-01 -2.933279645223474952e-01 6.947508124632331694e-02 1.652339775893817142e-01 -5.836473297385999515e-03 1.501899018894405913e-01 3.586317357191142197e-01 6.381553781130802072e-01 2.163061089458017117e-01 1.829973900400280740e-01 8.167435796597677378e-02 2.067094901418052022e-01 1.628257946914443699e-01 1.048763748772807286e-01 1.152428175181819531e-01 5.300327355307375976e-01 4.209042985946300219e-01 -4.081975985987272570e-02 -3.914353989829673086e-01 -6.949986635831208182e-02 1.448633339098868711e-01 3.648462292885977509e-03 6.901205732361972989e-02 1.641318438880835506e-01 -5.377771324759750282e-02 2.438062431687518794e-01 3.599133661309238397e-01 4.378645929501546741e-01 6.622905189081829125e-01 1.110037559274384522e+00 8.397934900300094707e-01 8.773091229738203545e-01 4.836625165505878399e-02 -5.644457354203332722e-01 1.415197566049100075e-01 2.035150500403141716e-01 2.434116657038203069e-01 4.173993982424101801e-01 6.340188379264329877e-01 1.115597590734132227e+00 8.272589141567101567e-01 7.006260589605156630e-01 3.239286732481370112e-01 7.825327060127945655e-01 6.778860554889725165e-01 2.312223103170567284e-02 -2.761049575184074123e-02 6.731594539363988661e-01 8.843728854033064968e-01 9.506952360521006562e-02 -2.024235300125848402e-01 1.683617439686178885e-02 6.709118404686051362e-02 8.454135441508001114e-02 -3.208002268996919260e-02 8.674000657905618639e-02 -1.022981242712033279e-01 2.955431234386985961e-01 7.145018357509334006e-01 6.942616906830427759e-01 5.050246370119658712e-01 6.945362048444836400e-01 5.802468731670769042e-01 8.782419983182054857e-01 1.021078933215079088e-01 -4.889308593093489863e-01 -1.711400484848029646e-01 2.043052267700357638e-01 3.931950598058316926e-01 3.856111934937982988e-01 8.893700659882264326e-01 1.017485649431021155e+00 9.627198008464732393e-01 7.253413586952038861e-01 4.912549933209093833e-01 7.711115312529190913e-01 8.080819060015236310e-01 5.536123194794058122e-01 3.398201150723736408e-01 7.831465710133126423e-01 9.960071712957572210e-01 3.415262475074657966e-01 8.350306530428468210e-02 2.354626998767808677e-01 2.531239379236006060e-01 2.305159264515984352e-01 -1.037936063542649057e-01 6.969967935227748546e-02 -1.221627635602789419e-01 1.641521756247649733e-01 6.847989667292463389e-01 7.161401248241592299e-01 6.804985373672434168e-01 9.351769654476977944e-01 6.775125606625879149e-01 8.069462112575753743e-01 5.680844061714620530e-01 7.335215409456480318e-02 9.216077996810143058e-02 2.291289516323284647e-01 7.961633259627905190e-02 -2.611290052608507620e-02 4.651554407213837061e-01 5.533075584099013122e-01 4.196922188589328750e-01 4.379861049683935192e-01 5.132059293437154501e-01 7.532484402470011053e-01 8.183669962964148503e-01 5.752062854730176644e-01 2.511777655036045442e-01 3.199296498988259962e-01 6.237809851706300757e-01 2.237066124867732320e-01 -3.398880535591236596e-02 1.578541016340780923e-01 5.824180834186584166e-01 4.157594798910648204e-01 2.146073537650179386e-01 1.116707152868892522e-01 -3.020772850643317631e-02 -5.370465951869869692e-02 5.934512225917859540e-01 8.534986302806646385e-01 7.734819871679197156e-01 6.449224248497816836e-01 6.171599016769661050e-01 6.097561805055038420e-01 4.959675315586552502e-01 1.450593831597834504e-01 2.030778720902238765e-01 7.517635964403210913e-01 2.328778153088447711e-01 -3.762156027182317342e-02 -2.672642524485364934e-02 -1.526492211229898144e-01 -1.182219077094741611e-01 4.179610398635116159e-02 3.724905794955026828e-01 8.498471053487984816e-01 1.170834814750258746e+00 1.036099811177751517e+00 4.002409719348441058e-02 -1.382859531794593533e-01 -2.625016659809308039e-02 -3.523225550969559250e-01 -5.537922497528305898e-01 -2.075150280723614404e-01 3.115900505642348328e-01 5.732769644895896466e-01 1.272077731236399001e-01 -3.294569394536443069e-02 -2.195949427873227500e-01 -2.090364801834823094e-01 3.790393461083825799e-01 8.036984761180749892e-01 8.039558337056391668e-01 6.552833299366864761e-01 7.361288274221292616e-01 6.108289189570594857e-01 1.499785468650354225e-01 -6.807108321715570065e-02 4.306319294896380212e-01 6.905777818107302624e-01 4.178413867593877562e-01 1.910270035244034936e-01 2.750303246787867972e-01 -2.835161606218004615e-01 -9.048493495123889618e-02 9.110582893277789640e-02 1.129122571769209660e-01 5.204683209815842426e-01 1.009416353658282750e+00 1.065520355705676048e+00 1.215307341437262267e-01 1.544090279902715634e-01 1.472359912001159343e-01 -3.829863078951291633e-01 -8.258636663100249464e-01 -3.751911254324538092e-01 6.730485597294738609e-02 3.702400271700108103e-01 -1.868780461978234997e-01 -5.703247745337045593e-01 -5.618283298285733363e-01 -6.027435580697703132e-01 1.455593715690425838e-02 4.455813429656927394e-01 4.888381859463302170e-01 5.740157837717615452e-01 5.174171731772592153e-01 7.005486379452121604e-01 1.775537801277746186e-01 -1.275410335642262194e-01 1.135867963811509063e-01 2.673242999291977062e-01 3.244954156836162840e-01 3.540042516390220495e-01 4.220400661501437778e-01 -9.746051689957645203e-02 -2.669409591497529100e-01 -8.771984735656770948e-02 -6.442921696361307571e-02 -2.603577593668625623e-01 2.904944802003258109e-01 6.056070646996676299e-01 7.385755054673505404e-02 1.985687887761041215e-01 -5.482016418028340388e-02 -5.505185020044738309e-01 -9.235804898463811918e-01 -6.068442401945463027e-01 -2.614818269393653916e-01 -7.275769822982758317e-02 -1.913633273679635760e-01 -6.161353786465993965e-01 -4.164915476675521422e-01 -4.549438620885719042e-01 -1.844069819169123214e-01 2.047120374957875355e-01 4.471600108312923094e-01 2.979235911382807633e-01 4.206714761676119685e-01 5.243809804563938082e-01 5.293808874380188934e-02 -4.105136016980523994e-01 -2.733987204662551851e-01 -4.361794672261175565e-01 -3.478264753436616230e-01 -2.575060469225328164e-01 6.854830442454346029e-02 -2.457788027515475648e-01 -5.812367356705734345e-01 -4.768142527268941500e-01 -4.205119849857734127e-01 -6.266535103643638971e-01 -1.796947140383433478e-02 -1.299471158293332741e-02 -3.492703135510661916e-01 -1.090909947323107365e-01 -5.164329359063736247e-01 -1.126373665321350304e+00 -1.040132793423076185e+00 -6.836886578998507824e-01 -1.025397044203079921e-01 3.541872831092502533e-02 5.413662109454552701e-02 -1.785435041449113247e-01 9.481461804068476440e-02 -1.049005934887571878e-01 -1.626799468802596904e-01 3.409587516490606429e-01 4.232819548328359271e-01 7.121358351889824079e-02 1.229007482688590780e-01 -9.853507071117899307e-02 -1.699074313112537704e-01 -2.168549496357281142e-02 -9.529838068943112528e-02 -5.776659349295409918e-01 -6.504603483125129815e-01 -5.074718404875800948e-01 -1.696695128496417126e-01 -4.358186159968072682e-01 -3.630586490718958892e-01 -2.636918239958248034e-01 -2.244095279728292591e-01 -2.033220380275179151e-01 -3.495341922918335786e-01 -2.601889597770532525e-01 -5.589589256142403206e-01 -7.167968668910645880e-02 -7.115732889950473483e-01 -1.090235266787181745e+00 -9.472515564127792498e-01 -8.287790054257547778e-01 -3.886696100006649113e-01 7.787958384413701252e-02 -2.858858955123044776e-01 -4.179762890371709061e-02 -1.189970382214918104e-01 -2.937832144284214797e-01 -8.804640174139735653e-02 2.066393482667521625e-02 -5.127066239587215746e-01 -4.586653714293604800e-01 -3.772900840657243404e-01 -4.177903475326361082e-01 -2.226165323186972134e-01 4.848912329775186825e-01 1.938935856872115726e-01 -1.964175915971712594e-01 -5.770089765649583091e-01 -5.512602129534779349e-01 -2.595009627641507999e-01 5.616083563811784252e-02 6.638510063984458254e-02 3.257123292209697096e-01 4.104588397511041431e-01 3.291882991572416262e-01 -1.019414367907339469e-01 -3.090210695938683250e-01 -1.049623591271227285e+00 -9.489222689248384413e-01 -2.450003645678798803e-01 -5.240293893341267939e-01 -8.066382964053347981e-01 -5.440271701663210724e-01 -3.503510478786558413e-01 -1.491779330004724680e-01 -4.321802149925340064e-01 -2.430436417599257382e-01 -2.686834219939913670e-01 -3.017712855236275304e-01 4.235109034541101325e-01 4.069400636321072184e-01 -2.885418962273991195e-01 -2.770516547120561723e-01 -2.622988410054207242e-01 -3.386454828184247701e-01 5.687013630872102266e-02 7.598460803520999951e-01 4.940510184566294094e-01 1.540417180473076519e-01 -4.790791047781443046e-01 -5.839758858223318416e-01 -2.838459498500081613e-01 3.530302750208722529e-01 4.296532770052675643e-01 5.800560464281769857e-01 5.141490000978188313e-01 5.011751661856256312e-01 2.820991206940571816e-01 -4.275276980881199257e-02 -8.213332190890940687e-01 -1.001711820024674404e+00 -1.822879952754698912e-02 -3.353257208776882492e-01 -5.566449407665872151e-01 -3.090062879824811426e-01 -3.509657678758235644e-01 -6.788618015743350109e-02 -8.248323728994561010e-02 -1.091015353037271263e-01 -6.432920374509823458e-02 8.922196500839457700e-02 3.990727393195658834e-01 3.000841674210905086e-01 -1.644493558586818671e-01 -1.416430147939032325e-01 8.288512716752641230e-03 -1.192761130898340322e-01 1.378034952804076674e-01 5.090464364270739228e-01 5.288524663840733497e-01 2.181181740553564674e-01 -2.402318062223875450e-01 -5.717659237431945707e-01 -1.848825231514582557e-01 3.561328838223286053e-01 -1.947940671282288871e-02 -1.378907158611887007e-01 3.486617703429319981e-01 2.604458856893954177e-01 1.366434752689087984e-01 4.747730372222552786e-02 -3.016738053027784305e-01 -7.086470508600294371e-01 -2.994926680581452283e-01 -5.968029680423301286e-01 -5.939508429870803408e-01 1.257602112739663602e-01 1.474101800530829010e-01 4.033368955840914705e-01 6.489640028564633289e-02 -5.980959002574566530e-03 -9.833453352888324450e-02 3.476199827969770478e-02 6.562173288358674750e-02 5.619700343414003180e-02 -2.381494725966138981e-01 -3.104869676300665571e-01 -9.357547486728785835e-02 -3.041407886326259469e-01 -4.001995698390338196e-01 -2.229850834186990205e-02 1.969412563176131115e-01 6.310911162578491940e-02 -7.447936979245925460e-02 -4.342619047989347281e-01 -3.135847093428440480e-01 6.781969436380785865e-02 -4.090788726819633014e-01 -3.513448073125057247e-01 2.260001024878690590e-01 4.017655165038346021e-02 2.586607575954884275e-02 2.794080375410617489e-01 5.746897082434053450e-02 -3.503443961421406905e-01 -3.978420821606339086e-02 -5.165154848904800478e-01 -3.429702380372792181e-01 4.609652181861748632e-01 5.501213412119846380e-01 5.412426171167594724e-01 2.241320653020875964e-01 2.412306776639664696e-01 2.455570308126311246e-02 4.182068478010877305e-02 6.091879978204325918e-02 7.894759785086330472e-03 -1.898046947802193574e-01 -1.015940803671485787e-01 -1.484853776089871125e-01 -1.676570383164306954e-01 -2.759622019992406527e-01 -2.289136897984556107e-01 4.291385516209968165e-02 5.984939716223980355e-02 1.003542985385163511e-01 2.204152048627405075e-03 -2.299801040378713357e-01 -2.376454384337124137e-01 -1.420036015750364422e-01 -1.297304548385065648e-02 2.695569505866508564e-01 3.215516069329369397e-01 4.452292969383836452e-01 5.193775694826092693e-01 2.734703218823831272e-01 -2.647837060037591117e-01 2.404338744407259754e-02 -2.894286565850864856e-01 -3.820835472885134587e-01 1.988852001871782016e-01 3.796000341233666253e-01 2.840410034552191543e-01 1.374300498606176868e-01 1.330189934932154427e-01 1.260891282712875427e-01 2.736292256655703525e-01 1.442974727669388557e-01 1.800265221515845449e-01 -1.024652249625008227e-01 -7.483150197058897890e-03 -7.743915093773796887e-02 1.504487309705995757e-02 1.763944106917685571e-03 -3.062853417931314381e-01 -3.460629371525251186e-01 9.880565171713473482e-02 8.012658751478550501e-02 -1.589209509857821279e-01 -3.312559968361556417e-01 -3.486062146869104428e-01 6.052312926673501098e-02 3.751157533053127158e-01 4.165458693881410879e-01 5.147520118811410583e-01 6.097471734568649104e-01 7.327691242574754238e-01 4.656916464631490338e-01 -8.304587061143842153e-02 2.117261996829233328e-01 -4.360926072301992140e-01 -7.609924817894311300e-01 -3.153759055774476572e-01 8.335665301061505328e-02 -6.757282340318943037e-02 1.317534246524128955e-02 1.173643936450002867e-04 3.878986609655396545e-02 4.003843714427524625e-01 2.921664694234673565e-01 1.395231144960650815e-01 -7.875037844209853422e-02 4.801298482221010022e-02 3.048401323311904221e-02 -2.732033830542899416e-02 -3.933029544679196576e-02 -1.967552782839024073e-01 -4.041053384330676179e-01 -2.140246653637088436e-01 -3.073197737180618505e-01 -2.835300902365122666e-01 -1.653021694866919633e-01 1.025788901561595773e-01 2.424345611636340991e-01 5.330175760893675063e-01 6.482467006108796337e-01 4.339917829575705710e-01 3.148055929122163810e-01 4.291447313466459912e-01 1.963729081311977043e-01 -9.925436876021521970e-02 2.889823555862584825e-02 -3.053451379350703987e-01 -8.272764511630801287e-01 -6.112014372003331530e-01 2.725152667123102376e-02 -1.420781338027679030e-01 4.301043437495100097e-02 6.043833285874057604e-02 -1.126068760199735452e-01 -3.001723584234930464e-02 -1.769427423361614737e-01 -1.951648484176061460e-01 -2.307493634558522022e-01 -1.705549717421814271e-01 -2.432344958279806790e-01 -4.314086518930972947e-01 -3.835857869147667465e-01 -3.334605281209503946e-01 -6.205827116553246370e-01 -4.259382348299766141e-01 -5.002801218694219454e-01 -3.260044846108521299e-01 1.911269587827039984e-02 1.261061017314189237e-01 3.001267037254315428e-01 4.868112234283796802e-01 5.827235083033681651e-01 3.763926445479937599e-01 1.301179144373074692e-01 1.844744669250781011e-01 1.275545261665012586e-01 2.283697579885713425e-01 -8.321892754826078209e-02 -1.615931395727107089e-01 -2.243723027337415354e-01 -3.201386961544726295e-02 2.133891988386489580e-01 1.357238072484798913e-02 1.856934382239632808e-01 7.930516647367576166e-02 1.568661155691605524e-01 3.432135867997530843e-02 -6.704694476568406891e-02 -4.722269292108978445e-02 -1.315541174516873246e-01 -2.840530076362660084e-01 -2.767404829574657277e-01 -3.465307750904009221e-01 -3.298155035944548286e-01 -5.326158108003831160e-01 -3.394591221358470023e-01 -1.058985192188928726e-01 -1.674403080861960880e-01 2.043652166435061812e-01 4.424927896477209299e-01 6.330812908314287224e-01 7.894212489950404033e-01 9.639032347005247470e-01 8.598408514238512490e-01 6.862470328115043428e-01 4.766062055974521483e-01 6.199400406273717357e-01 4.431510640822651781e-01 4.300903659204913243e-01 2.273600729236963658e-01 3.357663146301490542e-01 8.688501982260787848e-04 -8.390860690464799210e-02 -1.928305037784237147e-02 -1.883901438835936526e-01
-2.230397170571611021e+00 1.480758374870157823e+00 1.772937817631101476e+00 1.403957776752423170e+00 1.221626145126694096e+00 1.343805032592183757e+00 7.831952704328537518e-01 2.210461004673905383e-01 -6.174111088801482738e-01 -7.832677239245428025e-01 -6.577165441510646193e-01 -5.820211919533078149e-01 -5.272013994098339040e-01 -4.510820502079708749e-01 -2.452525786360978399e-01 -3.156173538997300021e-01 -6.132587529610853405e-01 -6.977804392522792831e-01 -5.963235018269827936e-01 -4.553730957237428489e-01 4.201603097836681400e-01 1.155327023702437950e-01 -3.665998274255380940e-01 -1.794629768305674444e-01 -3.035888000254667318e-01 -1.687058456823102293e-01 -8.674111790029290225e-04 7.392514198725506913e-02 4.040351524218850354e-01 3.975425968598170212e-01 3.208695490497411873e-01 9.218354787269941730e-02 9.360291290908703127e-03 1.419600094655642408e+00 1.584818533687589515e+00 1.348873060795007461e+00 1.165058733405022862e+00 1.142943582305973926e+00 5.657018116934489083e-01 -6.203692628901077977e-02 -4.429837420963679273e-01 -5.152393143419853327e-01 -1.753784261394034649e-01 -2.797594209183131841e-01 -4.848778186527879508e-01 -1.777727851954873650e-01 -1.822758218766714067e-01 -1.104856062910277298e-01 -3.362839394548164940e-01 -2.940100367063257919e-02 -2.218759489970034346e-02 -3.078041400111150572e-01 -2.616709092842380013e-02 -2.149753394764891967e-01 -3.865686822277005774e-01 -3.048278055280960186e-01 -3.477400812201555391e-01 -6.102964546717806193e-01 -3.899401290179896895e-01 8.249854762336371328e-02 3.755274805881344546e-01 1.663294938478594998e-01 8.598337625694052466e-02 3.649755511693644761e-02 5.031238150197322456e-01 1.003155939613147307e+00 9.454381201173850391e-01 9.504656958599158045e-01 5.549878735659464768e-01 5.976030395793863192e-01 1.650104703553608720e-01 -8.659701486980673213e-01 -6.222835777801989376e-01 -2.709966201958023957e-01 -2.104470599279444909e-01 -2.133296805857998191e-03 -2.783919997848282035e-01 -1.943219284689615689e-01 6.197258085129953020e-02 1.438725567528344185e-01 1.108745339632074833e-01 2.913563662896190981e-02 1.458971674386390915e-01 4.752371678158451990e-02 3.000113383888320939e-01 8.450701939696086962e-02 -1.617211353767497861e-01 2.512192721136891765e-02 -1.266336033242972392e-01 -3.438956706989922951e-01 -2.932241822305153844e-01 1.642837204119912964e-01 2.927278843617251991e-01 -1.380321442290085437e-02 -1.291352428099298288e-01 1.241524625650362035e-01 7.519750573561927443e-01 6.369304666396996550e-01 8.878395586870410083e-01 7.966012014728630630e-01 3.341689693008184081e-01 4.959602306395125004e-01 2.272156057869528234e-01 -4.559511664414469534e-01 -6.230597427295592183e-01 -7.360753668391083471e-01 -4.684053437217402527e-01 -3.457686581552019689e-01 -4.637559744693832142e-01 -4.591746793740862920e-01 -1.063786719151063043e-01 1.456140132752601068e-01 2.964904354029913175e-02 -1.290904398774663231e-01 -1.368040966990389795e-01 -4.879220479702078284e-01 -5.853686828115316210e-03 1.553300272318871578e-01 -1.848529564105754475e-01 -1.234710250739746301e-02 -2.261206228975050081e-01 -5.360285408394178663e-01 -4.173350170551594074e-01 -2.407344536421957351e-02 -1.948338265675293446e-01 -6.278632650968285489e-03 -7.765018213649715895e-02 1.644998041483466400e-01 8.406371926648102955e-01 8.506743481090212056e-01 7.219128189476522461e-01 4.937612342036299951e-01 3.182304102446323890e-01 3.456058856120968192e-01 -1.710954730906179833e-01 -4.043964787141346995e-01 -7.434258179961500401e-02 -2.259085751811966691e-01 -5.376277383849561997e-03 -2.478829978052349281e-01 -6.015896597588484829e-01 -9.841245662026903984e-01 -7.861315361923201239e-01 -1.151770466373268353e-01 -2.689280913524328895e-02 -4.289963948485882583e-01 -1.350917326946297903e-01 -3.501911529155812830e-01 1.315845424824714505e-01 4.898619536123952067e-01 9.122730428581540818e-02 -8.662616957393512451e-02 -1.230782835351059146e-01 -4.813708660887179303e-01 -4.782976092195520557e-01 -3.355193139179970530e-01 -3.564950963981157739e-01 -2.290367391703470035e-01 2.063054947275442530e-01 4.368253302578119501e-01 1.039643063996083860e+00 1.121492027792607704e+00 8.173936282982418033e-01 2.948272182165264099e-01 1.161712896045767329e-01 -9.076423908292997889e-02 -1.093573246883692840e-01 6.830451316699364117e-01 7.307391468725950023e-01 4.888007937667548375e-01 4.854467135919062204e-01 -6.541063780035699660e-02 -8.249045238696467441e-01 -1.154050949848975716e+00 -4.969197012807329283e-01 1.106620742904460136e-01 3.802612645160965421e-01 -4.676870193295468159e-01 -3.200452152314707810e-01 1.004334898386060604e-01 2.290932256897769137e-01 1.803092917632596603e-01 -8.149980544094521939e-02 -5.975033562534709519e-02 5.833377694921118573e-02 -2.361775957397595493e-01 -2.975866044343836725e-01 -1.150287906568655122e-01 2.372983307440758305e-02 -2.051839138781522132e-01 2.075525252898793305e-01 5.453858453390457717e-01 1.013539181035493231e+00 9.225184043240662879e-01 5.006395225771368418e-01 1.015091400298034907e-01 -3.763897329383957685e-02 -5.038097587451565440e-01 1.674142495115419349e-01 6.165351058374352045e-01 9.534445942741627267e-01 5.955883882391531658e-01 -4.704005274336719444e-01 -8.977952690130290847e-01 -1.099725613388978784e+00 -1.585227936377453295e+00 -6.211387547152028565e-01 1.995859900140746213e-01 8.429112845149382138e-02 -9.287615216012116148e-01 -7.738285054825492226e-01 -4.792278556306855397e-01 -1.812551212969016889e-01 -7.806103215099551018e-03 -6.626867759606805408e-02 2.294387883935149197e-02 1.890904687588852995e-01 -1.500505330706549678e-01 -4.235720878464330208e-02 4.211020067946786849e-01 8.559326751641156417e-01 3.319157300600747984e-01 3.478615570808114010e-01 6.130303721066938660e-01 1.049442975250218346e+00 3.273901229994706230e-01 -6.706230442631817140e-03 3.336424562360539303e-01 1.277722703180401709e-01 -8.221561747511761664e-02 7.571049235873537064e-01 7.620062214908478460e-01 9.774138009273297678e-01 3.072611222485180371e-01 -3.318259561505870758e-01 -7.447998357106568879e-01 -8.465121133948059207e-01 -1.150953956045041471e+00 -9.617671279335878731e-01 -2.952924268653815340e-02 -1.471380358461730209e-01 -1.172941014605535015e+00 -8.646215808203550068e-01 -9.028023057751887182e-01 -6.942098607732705151e-01 -6.311896802969305109e-02 -9.904000036430403442e-03 -1.411638161269597458e-02 8.368595197856681933e-02 -8.410566931497906462e-02 6.203361099149103802e-02 5.336404688375242511e-01 1.098926511749893198e+00 7.847517391449830848e-01 4.397085054016559580e-01 2.555842761812795461e-01 7.534418815882416576e-01 7.780102049078156667e-02 3.100329852455638302e-02 3.602950766736994215e-01 -4.497014597963393256e-02 -9.448655887960279165e-02 9.259871129139854440e-02 5.110470051523178237e-01 4.046777316715297057e-01 1.052243146585417621e-01 2.428098676123077726e-02 -2.705208243286254532e-01 -6.027269583803396280e-01 -1.040151862828018858e+00 -7.660647105783420230e-01 3.108095262127660297e-01 3.848785768177984679e-01 -1.878409331939336624e-01 -5.264276061822419084e-02 -4.306912384513947312e-01 -4.778687855621797098e-01 -9.429099336658176844e-03 -2.065196856025261138e-03 1.551393380544023870e-01 2.587541942083523838e-02 1.656571093713487541e-01 9.967432759094477235e-02 4.351643026079285437e-01 8.115568775599807383e-01 4.702270948616322221e-01 8.554956533399346585e-02 3.359591421349642643e-02 3.182676356129969242e-01 1.618494777117494565e-01 1.104316988666334126e-01 1.543778225857800335e-01 -1.002582081671871128e-01 3.674848756403636951e-02 3.350947862138735356e-03 1.603536652609423019e-01 1.213585079702796804e-02 -1.405041557552076936e-01 1.189506356335254672e-01 3.681140324113592044e-01 -1.005802897515585270e-01 -7.451650092714279250e-01 -5.260360769569446537e-01 6.220213941317515038e-01 6.749729295412689734e-01 5.474068052757556924e-01 7.886067313277821400e-01 -1.945111103300048161e-01 -2.795328767145683901e-01 -1.263828234503680537e-01 7.430787480189426919e-02 5.285253383094173224e-02 -7.365404186478922144e-01 -5.919529888403206597e-01 -3.375058896056581936e-01 -4.041459596283607236e-02 4.826672022672475748e-01 3.958079312692421858e-01 2.461189490683648173e-01 -1.157336437719402311e-01 -2.784046805910351252e-01 2.389699618977476070e-01 2.658409009948128898e-01 2.597497012520360582e-01 1.712993555529570000e-01 2.407048173963852178e-01 1.569349060079793523e-01 4.610270742887185857e-01 4.319922220224361453e-01 1.639822637457222232e-01 3.109437274928510825e-02 2.921659190700831576e-01 2.632472150208622214e-02 -1.668782880338966212e-01 2.771397091782590305e-03 3.930296804129330135e-01 2.721488123195140926e-02 4.603800197874438616e-01 7.673415073636683514e-01 1.284097705364844189e-01 1.908636258854191636e-01 7.976197452915184671e-02 3.700139510974050083e-02 -1.685342261681152809e-01 -8.502153539953473116e-01 -8.309382793425565961e-01 -6.278184984890250453e-01 -5.574261094405466577e-02 3.096597246518518198e-01 3.690283182178434873e-01 2.267513591214473379e-01 4.061053088393561106e-02 3.108639019723737906e-01 3.635815489626682551e-01 2.728297094913442744e-01 2.129633579192829473e-01 1.487495463851719879e-01 5.933940475565142869e-02 -7.597765677904400050e-02 1.189047796975634119e-01 4.203828584723607875e-01 2.797892071790521462e-01 1.565407197450616184e-02 1.498106527002846522e-01 -3.065111737271879466e-01 -2.790256961881661391e-01 3.312361237132435687e-01 4.616077449689868217e-01 -3.700053852281733890e-01 -1.983631811879793816e-01 -7.855496006518733476e-02 -3.339199570889633817e-01 1.942531874145979331e-02 -1.652267729502631677e-01 -5.843157209113917228e-01 -2.938901866984462985e-01 -4.754053100629686557e-01 -8.367189631196105815e-01 -6.786798431107350371e-01 -2.395737505500818987e-01 -3.224453184137102829e-02 -7.432935708444501910e-02 -4.349497676767410392e-01 2.907238771983531311e-01 8.285471888072941660e-01 3.639705620284394705e-01 -3.618680542630953872e-02 -9.631063964489391949e-02 -6.792401469854409957e-01 -5.120956306205346475e-01 -5.078908865199429634e-01 -5.017031390700744664e-01 -2.611350906259944371e-01 -3.270248949460669574e-01 -2.602232907743755597e-01 4.641993058603519073e-02 -2.856412607934100123e-01 -7.133789290287005924e-01 5.059702632178633142e-01 7.037855322874388975e-01 -7.412850703642630268e-02 -9.602851783326048912e-03 -2.069264393893685550e-01 -4.580799623593287961e-01 -1.993752594836039616e-01 -3.242889846525947029e-01 -9.494697098303019889e-01 -8.947331997048297847e-01 -8.569643886788256282e-01 -1.174168783060672405e+00 -9.719535434215008651e-01 -6.136745440205679802e-01 -5.941056034589210499e-01 -5.443979312723715713e-01 -3.804741315189990591e-01 8.697045156456134629e-01 1.338511308975449454e+00 4.506349396453662726e-01 9.692525099258769705e-02 -3.876979488673285568e-01 -9.965008899170161305e-01 -7.847231396374864110e-01 -6.075041883659805242e-01 -3.880344337486205664e-01 5.932433653039102112e-02 3.698018792142684918e-02 4.746831739129345751e-01 9.324751912398238085e-02 -4.445993545965635230e-01 -6.140777874146213788e-01 5.202835005068099372e-01 4.724408156849292384e-01 -9.645332262486247532e-03 2.224166857275324261e-01 -7.328568014251021778e-02 2.053637977405788628e-01 -2.697363570737687510e-03 -1.679335415252601327e-01 -8.679800459288186110e-01 -1.229378759773429586e+00 -1.103233626883266982e+00 -8.392615225729125328e-01 -6.454915735172686020e-01 -9.424875647080320773e-01 -1.294146472992631081e+00 -3.935415728389798917e-01 1.549709147725307212e-01 1.147131232880171492e+00 1.246653954263186037e+00 4.253897418306231137e-01 2.224469304649362988e-01 -2.744857137899896493e-01 -7.872540235691972699e-01 -6.100924307704058691e-01 -2.847520643617027503e-01 -2.919041232152569387e-02 2.830623014174298291e-01 6.520860991086785408e-01 9.827165353898479339e-01 2.802302574202013008e-01 -3.826835278505806293e-01 -2.184366005182565851e-01 6.659167993994201673e-01 8.309549464753234194e-01 4.517393929886522885e-01 2.717817573428105149e-02 -5.085665305300032246e-01 1.037700531713177388e-01 -2.066087015594262610e-01 -8.112456685257544986e-02 -2.233563557930591248e-01 -9.106699862926190825e-01 -1.126147091435736325e+00 -5.919377346378378313e-01 -4.008340498057630930e-01 -7.910594830142021472e-01 -8.003788934142793687e-01 -2.220185148311671353e-01 6.969417098422491241e-01 1.000021656093351696e+00 1.209604312534378945e+00 8.219675698969521882e-01 6.215063482578807585e-01 9.046631263781620969e-02 -6.328530447213238930e-02 -2.255959074893089111e-01 -5.434704043149951591e-01 -4.431839448863971187e-01 -1.554959178916423893e-02 3.567327529723136048e-01 7.036131238149052614e-01 1.199322587923629391e-01 -2.583479931972942900e-01 -2.036149536196107113e-01 8.916461641083613110e-02 6.288742880461227758e-01 2.047478639288542041e-02 -3.124635990850305189e-01 -9.203210846132170442e-01 -3.990786870121419694e-02 -2.590337705438768845e-01 4.149993139874960102e-01 4.658304347258933609e-01 -6.134333880928595217e-01 -1.129660606111931642e+00 -7.569690401911111088e-01 -3.069254457100009104e-01 -1.875499279900172400e-01 -2.406696086086883291e-02 -2.631966051071099044e-01 3.060259023056318139e-01 8.002547973211419086e-01 9.514244220988368195e-01 1.310684900199529102e+00 7.931468680643450897e-01 3.807269117060755326e-01 3.778379263471657867e-01 2.587729494427390975e-01 2.672855249290595481e-01 3.470089301926094216e-01 5.929840617945704162e-01 6.618800949590116778e-01 8.791321018231564866e-01 3.412802456841210752e-01 -3.877568635166860345e-01 -6.030107516992948558e-01 -5.839819185597078244e-01 -5.450567604176883574e-01 -7.020523874821398280e-01 -4.869534462523145701e-01 -6.262469433058610591e-01 -4.351767408674687976e-02 -1.021528657870841295e-01 4.096096857387112045e-01 1.410004673167339628e-01 -7.698971579670556009e-01 -8.316925167977607947e-01 -3.380831290977463488e-01 -3.276137383888678700e-01 -5.945702471745587525e-01 -4.303631188799944551e-01 -4.182767827457150034e-01 3.292161080802901152e-01 8.667770470649585057e-01 9.256885477332806866e-01 1.099969768005673476e+00 7.503012926601402288e-01 2.250458846971880311e-01 6.152394480273618571e-01 6.083504195048302643e-01 7.022819899100040120e-01 1.201448659157908327e+00 7.764392013313726748e-01 5.009197940724311460e-01 4.790688610921178814e-01 1.368410200788639820e-02 -4.112859796777180721e-01 -4.273921755377116383e-01 -2.814101553690313562e-01 -8.689831594939584347e-01 -7.241924586930921226e-01 -1.509714340871317340e-01 -7.590034471629625301e-02 -5.288644637426038742e-01 -7.063481044258340669e-02 5.525471525717722265e-01 -1.323070676463966033e-01 -7.357092795581896549e-01 -2.870472139691068181e-01 2.761588616490096015e-02 2.160897910262346566e-01 -3.840270744570951633e-01 -5.451085211899659999e-01 -3.921590857600222302e-01 2.873073716089235424e-02 6.557937930949500061e-01 9.276550838024780754e-01 1.154530243308293791e+00 7.107696116242736561e-01 1.171032430297122007e-01 6.457264283414760886e-01 8.096313179394704074e-01 9.065831464044855625e-01 1.007044269192999053e+00 8.873745477910255364e-01 2.346460793043177173e-01 -1.056368515858970292e-01 -3.495542169133640797e-01 -9.679751376056501266e-01 -5.505425999452027153e-01 -1.267793322810215062e-01 -4.307787500742413789e-01 -3.406560401147469830e-01 -2.246979854140555011e-01 -2.523615403595110829e-01 -6.256255984000375081e-01 -2.213483537528711520e-01 7.372420004379891534e-01 1.378740677538780046e-01 -5.282283576941880776e-01 1.040306888420960835e-01 3.548341269066732084e-01 6.673328943082375009e-01 2.154209775752932710e-01 1.195146189238363021e-01 7.757505002403521088e-02 1.553524052052903393e-01 3.255673896981049475e-01 7.127051297408074637e-01 9.472911729457512697e-01 5.137533057230264655e-01 4.941268394452900947e-02 2.393367714432103055e-01 7.889336652382318293e-01 7.649301149774733188e-01 1.006924170012602593e+00 5.010347867489167717e-01 -1.371978967418381878e-01 -6.060651299169530493e-01 -9.592086006219217031e-01 -1.015314154599403107e+00 -2.060080281335366914e-01 2.393551013337055777e-01 2.196327161183427579e-01 8.387856922246084146e-03 -4.648480533932641823e-02 -1.548714697090809722e-01 -2.945099629662122909e-01 1.448036257635213486e-01 6.951184249964476036e-01 2.402853252810226714e-01 -6.982402049651581510e-02 2.449501381325696614e-01 5.177585620104965258e-01 5.611111173509989447e-01 4.100619325206380505e-01 3.865923241067865668e-01 3.774663635278886487e-01 7.360783560355718125e-01 6.961082837252619004e-01 6.569254617634349147e-01 6.236854952796972995e-01 1.930520710643608973e-01 4.196297706692653784e-01 7.691549339322123480e-01 6.709391005605294112e-01 9.246735732351433201e-01 9.611422980085260193e-01 5.112507184257553128e-01 -1.329331387841831413e-01 -2.990702041001725431e-01 -7.088878227560846401e-01 -6.659441375451834455e-01 9.370540516913369866e-02 3.935121632743793230e-01 7.331413686388682516e-02 4.122635936965505371e-02 4.327592407365005722e-01 2.300209708051345892e-01 6.912013398989285129e-01 5.871703499378012614e-01 4.122645073051119935e-01 6.473801036380955054e-01 4.510453066701036740e-01 -2.550930895045146474e-01 -1.342154245817118452e-01 2.964017004641415487e-01 2.384029801319151876e-01 1.717581286894118986e-01 2.242434738471784095e-01 6.624762365082436100e-01 1.142365101704284180e+00 6.999121072599194804e-01 5.367135129778515257e-01 7.669101926492095933e-02 5.748813884306140931e-01 7.112448457369576760e-01 4.812629792271930773e-01 5.615416039020654226e-01 7.326419169576237067e-01 7.403062771417507903e-01 5.791920058210925371e-01 3.941700484171307695e-01 -2.845972125081810411e-01 -7.358168494060655096e-01 -2.877607070518041765e-01 1.529590680390235935e-01 5.269643542792386975e-02 4.338700235287739626e-01 9.496197574632133653e-01 1.138070988401458372e+00 1.574746197771556222e+00 9.254038964204044371e-01 3.434644720543981178e-01 8.717233825438770456e-01 1.031278482224527449e-01 -6.520874279890256364e-01 -6.833778327973557554e-01 4.006384672807685177e-01 5.944103889859014833e-01 5.088410376048296824e-01 5.337851188514077805e-01 5.526129389892836530e-01 1.030484911933474912e+00 1.099602104027227023e+00 1.970826348403552086e-01 3.092200069224283060e-02 2.911334144721985373e-01 7.071809458776766311e-02 -2.021180657839602990e-01 1.108645119183979122e-02 1.525666203773675678e-01 5.289519051420954465e-01 4.810520042360301174e-01 -8.486597661526519565e-02 -1.793470892528131466e-01 -6.961859037479735113e-01 -4.202678497963087123e-01 -5.035401246554790933e-02 1.300346031586200463e-02 3.377739431216563171e-01 8.401985823413307131e-01 6.783219009656908938e-01 1.088810061906785753e+00 1.059762919779819290e+00 7.147333827508353110e-01 6.402922815659952693e-01 -1.758503678947340720e-01 -4.807966436958039935e-01 -4.343159410131666176e-01 4.169759228255434103e-01 8.451080074770180861e-01 4.284454777605519737e-01 2.933237312269733055e-01 3.155499436410363900e-01 9.012606000264600237e-01 1.005532798629592772e+00 2.335391636330964582e-01 3.168078238368392252e-02 2.711778389426848235e-01 1.357468489782101551e-01 -6.577899185906577184e-02 -1.697552553616523130e-01 -3.871806498644621009e-01 7.341240125982391451e-02 1.379962711840907186e-01 -2.228709538946478941e-01 -1.707072779909593607e-01 -1.816100947250168240e-01 -1.836583205090996235e-02 -2.170588407229431249e-01 -3.510579543397832070e-01 -3.500733993809023586e-02 5.987161832070677647e-01 3.217484836680210847e-02 4.119838450494728854e-01 7.118189802354941698e-01 5.443878142214153559e-01 4.725414397605769978e-01 2.393082413263283165e-02 -9.582004369557989287e-02 -2.082272219052122564e-02 7.799706987307458705e-01 5.032813839818841561e-01 1.000932604745605470e-01 4.056824973584657879e-01 3.738698729144441790e-01 8.276401480004461630e-01 9.256104309223557314e-01 4.394821710995341912e-01 3.697508461247023259e-01 5.465054778282838477e-01 5.489757339128906732e-01 1.643762949158841247e-01 -3.662883269803025588e-01 -6.390860135617189020e-01 -3.837397544921629100e-01 -2.859226858098395385e-01 -4.389346092194656435e-01 -4.914509885584081306e-01 -4.169287607243858940e-01 -8.025606797929658587e-01 -9.647801414241822249e-01 -9.869198069071172252e-01 -2.383726745750761045e-01 7.335751615587489116e-01 3.074020563543202744e-01 3.399366469894716802e-01 1.963405174624082428e-01 5.309168059967943609e-01 4.179474270290159943e-01 1.737698934662930128e-01 1.482788964308890955e-01 3.714220941543545235e-02 3.736101064869370436e-01 2.162053121364484673e-02 5.693569698914385108e-02 2.873384161051729668e-01 3.714268852918871100e-01 7.706626368072090338e-01 8.481577502202845009e-01 8.389736960652135478e-01 8.264334586556499884e-01 7.634489711342360430e-01 5.586275023625640879e-01 2.927368429032937147e-01 -6.440529613807650655e-01 -9.365252754872015473e-01 -9.299041092695925492e-01 -6.707646508528994911e-01 -8.953643908187418621e-01 -5.719216786681881048e-01 -6.091417545246822218e-01 -1.354088954993668326e+00 -1.573487066789906130e+00 -1.233552566954175589e+00 -3.183446236073918523e-01 5.208369821295552038e-01 6.713452809624472772e-01 3.769787776595544537e-01 2.652568542736170043e-01 4.322545410198425642e-01 2.449206061389060385e-01 -1.423197077952874923e-01 -2.292161985195378254e-02 -2.846757959249554548e-01 -2.880616458921644168e-02 4.759791783228215500e-01 2.197124505472789757e-01 1.939970567530013290e-01 2.930240369743263296e-01 2.577821663934049545e-01 4.427966989414782728e-01 5.635460005981589582e-01 6.329048170789249861e-01 3.741548865617991826e-01 4.347000380504256190e-01 1.663877611046478688e-01 -7.393436039755849620e-01 